100 784 real
-0.0682695236659 0.0189821290271 -0.0571905844129 0.0294884500573 -0.0501783619136 0.0695669248771 -0.0683420200862 0.0673629891027 0.0845882219606 0.0815630375924 0.0973044488198 -0.0945566127086 -0.0350268397989 0.0826250955079 0.0757018601845 -0.0584769270299 -0.0144992976780 -0.0712633044778 -0.0925471828884 0.0531708777149 -0.0119775994410 0.0434952071767 0.0236477649328 0.0450141316012 -0.0470200427268 -0.0184301198848 0.0686363367130 -0.0449946971822 0.0168066556070 -0.0151361084405 0.0361327008536 0.0921062379327 0.0200597434757 -0.0863658228887 -0.0580321396696 -0.0463363838008 -0.0648135972511 0.0800270473192 0.0240581398579 -0.0131873868229 -0.0331951803908 0.0754639513848 0.0137198485482 -0.0137064567810 -0.0004286089196 -0.0847650206543 0.0402464439273 0.0135146285929 -0.0550856398381 0.0558433354977 -0.0402616077909 0.0072692309640 -0.0944058032667 -0.0590879908496 0.0959358737175 -0.0819098267513 0.0011144456423 -0.0981196777086 0.0037715890524 -0.0607569133953 -0.0942073102199 -0.0579418594719 -0.0885675655747 -0.0815904762239 0.0755823000454 0.0626389596067 -0.0003260415320 0.0317928076037 -0.0336654112671 0.1308356528879 0.0363840916693 -0.0347557892370 0.0990185222250 0.1272271565545 0.1115139129428 0.0248775563888 0.0898560103792 0.0211503817823 0.0770914059022 0.0967601938896 -0.0386040380954 -0.0467861665144 -0.0218945352042 -0.0798335960341 0.0294404000672 -0.0880883484130 0.0865068030923 0.0501022143338 0.0019174742534 0.0250907453449 -0.0382471690268 0.1100969622952 0.0830695271319 -0.0464447200986 0.0987614454881 0.0004356226942 0.1408825186533 0.1499705171897 0.0687166936829 0.1269675372911 0.0122218893944 0.0189350264324 -0.0043368287371 0.0528954239511 -0.0192853289563 0.0534864958884 0.0355256660907 -0.0731047327746 0.0025883404588 -0.0406435207330 -0.0354020651175 -0.0926088765869 -0.0708729061961 -0.0284237034014 0.0060785243034 0.0729622994836 -0.0253724843729 -0.0385850159731 -0.0068059385270 0.0951695850550 -0.0239315882711 0.1407930403850 -0.0089116240366 0.0101062944356 0.0677744626452 0.1305878495363 -0.0011889095204 0.0535674584422 0.0535844587384 0.0251392722011 -0.0832724863383 -0.0369987587723 -0.0569961434411 0.0694039419732 0.0113531586736 -0.0214754169329 0.0763683573163 0.0449051461932 -0.0032487370861 0.0666432200506 0.0533332643144 -0.0315284835479 0.0893234181172 -0.0109798566880 -0.0309524056440 -0.0765716046172 0.0059310424790 -0.0438176467075 -0.0183842595732 -0.0739161775765 0.0503116122039 -0.1424565181013 0.0636975658999 0.0098251562423 0.0283019661079 0.1438608250635 0.0862092553878 0.0966271185433 -0.0123057657627 0.1116485220038 0.0443131708345 0.1132338427560 0.0801571372945 0.1020137341048 -0.0205167835080 0.0317498105641 0.0640503147204 -0.0120214331697 -0.0333953070237 0.0563561468547 0.0001584925097 0.0597042752163 0.0603619482843 -0.0321900439143 -0.1090361311386 -0.0651773969555 -0.1437675049218 -0.1468764965677 -0.2022640306416 -0.0844777615667 -0.1392612358400 0.0103960827035 -0.0344987277823 -0.0556831681020 0.0267927517801 -0.1523882080262 0.0547717083460 0.0317398336140 -0.0003462904228 0.0191378379853 0.0564536280079 -0.0266868970934 0.0156296154473 -0.1073859579729 0.0161016421297 -0.0976317135636 0.0239344090639 -0.0248866977830 0.0235427888510 0.0477041085909 -0.0948679076932 0.0095349877977 -0.0183030999164 0.0138753150497 -0.1685989692727 -0.2299974932994 -0.1060687112904 -0.0402148662497 -0.0035462206696 -0.1076794634302 -0.0721977086363 -0.0328411571288 -0.0870278073156 -0.1815237303473 -0.1959932491672 -0.0674856150517 -0.0766433640876 -0.0033681877073 0.0457473169425 -0.0941830217165 -0.0896690963803 -0.0746736672652 -0.0822783215463 0.0350932639849 0.0593600713945 0.0360595940978 0.0166757019105 -0.0063988019563 -0.1241605006360 0.0283629604752 -0.0399966207881 -0.0334985548572 -0.0708352874534 -0.0521673971783 -0.1673611010302 -0.1052574873783 -0.0877728550256 0.0136328197213 -0.0611279666579 0.0069753303782 -0.0867121579778 -0.0375016948796 -0.0987558555404 0.0091252948927 -0.1572537475320 -0.1138283006034 -0.0524347441420 -0.0614277454030 -0.1764902799413 -0.1709746974135 0.0310241316287 -0.0794451554629 0.0234047911245 -0.0914247350419 0.0954920547685 0.0674305146989 0.0358801853147 -0.0105615113871 -0.0134078369143 -0.0358156375713 -0.0708960219926 -0.1036470961451 0.0456685444040 -0.0969898864737 0.0730628051547 0.0223536249049 0.1182012747662 0.1320793025612 -0.0425254488249 -0.0654582433818 -0.0184468023022 -0.0720091937207 -0.0336509375347 -0.0393212745575 -0.1002638149108 -0.0847590992756 -0.1661319615694 -0.0122435470183 0.0237834571674 -0.0731459392232 0.0665652846852 -0.0617827429887 0.0822043538839 -0.0071690298922 -0.1335492816984 -0.1471756515237 -0.0645422003187 -0.0760486259187 -0.0895289484045 -0.0557923510349 -0.0891909209481 0.0253499620980 0.0021143968173 0.1077305861187 0.1132277390739 0.0886333695489 0.0978797020503 -0.0067370163064 -0.0541605955952 0.0163262902196 -0.0071047799387 -0.0020739384269 -0.0222540557120 -0.1145897864964 -0.0950803245223 -0.0400204766788 -0.0918987000033 0.0206001787256 0.0971529504271 0.0472784034123 0.0091959123532 -0.1058013758269 -0.0627788597768 -0.0721163805281 -0.1624566771271 -0.0834605942187 -0.0933179979363 -0.1716461346988 -0.1740345354389 -0.1688024274381 -0.0328643713766 -0.1609784063204 -0.1286112678920 0.0301782489429 -0.0934552840710 -0.1670430702468 -0.1561042947168 0.0228371443410 -0.0168175636890 -0.0160192048719 0.0506247435027 -0.0424999075409 -0.0296732069950 0.0543596696121 -0.1043255526834 0.0545056306294 0.0756783398130 0.0127672445709 -0.0103036829754 0.0000027134480 0.0313250117454 -0.0835050237496 -0.1287393483475 -0.0505492447779 -0.1193517217387 -0.1380133733482 -0.1071257403156 -0.1632703036408 -0.0333704136504 -0.1398223985862 -0.1258201703733 -0.0994124451770 -0.1285984177583 -0.0821969430044 -0.1481584593049 -0.0234576981394 -0.0680825923403 0.0785932465367 -0.0000234513289 0.0262866170814 0.0601136511349 0.0718773324331 0.0094814369557 0.0288038964698 -0.0120550789487 0.0824156211555 -0.0373029315718 -0.0683333594257 -0.1261561897343 -0.0088869789795 0.0228008875149 -0.0012087309776 -0.1753621367599 -0.1205168305918 -0.0271465972665 -0.1113828432000 -0.1366955685252 0.0097700202596 -0.0536408128174 -0.1327663454488 -0.0234165998379 -0.1086946377189 -0.0926451306667 -0.0314210211756 0.0600658861447 -0.0714170690127 -0.0306535255182 0.1776627938072 0.0537020606912 0.0261645324038 -0.0829089692907 -0.0337560969792 -0.0174509022236 -0.0087909799202 0.0514174638922 0.0046245571241 -0.1137589191898 -0.0681253230235 -0.0222085254243 0.0070699546633 0.0416753242628 -0.0063794839046 -0.0409466277223 -0.0062426361174 -0.0807560054100 -0.0388891144484 -0.0326205043358 0.0039423738504 -0.1108659054018 -0.2412606314380 -0.1396554868710 0.0404686365615 0.1113343688778 0.0139218776109 0.1579670213478 0.1745926312259 0.1438885544669 0.0176876908438 -0.0611475178302 0.0173303125620 0.0421922994726 0.0419874742043 -0.0753042193527 -0.0640683674059 -0.0332065931382 0.0143934554060 0.0842341832015 0.1685178948822 0.0933479330410 0.1383003940445 0.0737205860024 0.0544490633033 0.0177867904685 -0.0125496013234 -0.0747327173659 -0.0899962875081 -0.1758292109437 -0.1364990843543 -0.1040583600501 -0.0698682672081 -0.0325458570229 0.0544003403570 0.0969730477035 0.1147692004834 0.1678803264221 -0.0250813491401 0.0239165562491 -0.0245322191322 0.0042766923338 -0.0649057381094 -0.1028700643444 -0.0781993535375 0.0745804328190 0.0192402819535 0.2391931553899 0.1313085665969 0.0701293637674 0.1441285109640 0.2520338424619 0.1595177662723 -0.0161618151514 0.0660024041512 -0.0242179320474 -0.0994802848849 -0.0971013570621 -0.2069737823638 -0.0061380269831 0.0229510359784 0.0369842805617 0.0473165335200 0.0065651044046 0.1647135656976 -0.0094183524948 0.1248849885192 -0.0228949990618 0.0254150768462 0.0485567872488 -0.0818171978383 0.0838878195515 -0.0753198975541 0.0657530924257 0.1373074737174 0.1856803913287 0.1544219989752 0.0816834697475 0.1091195243638 0.2912089424742 0.1824946415060 0.0342583849664 -0.0289591293954 -0.0200004997140 -0.0195732824490 -0.0630375985373 0.0108829378455 0.1012004683634 0.1532883503934 0.0328183206006 0.1289548985863 -0.0083028151684 -0.0216168080827 0.0326032681173 0.0374165741117 -0.0808976523191 0.0093854540933 0.0124253211973 -0.0352912775072 0.0097997329806 -0.0738211791165 0.1150765306293 0.0531088587315 0.0432839891551 0.0621708058757 0.1738107415669 0.1049234867086 0.2646922981116 0.2074997731593 0.2572584343361 0.1640913888177 0.1381763844733 -0.1226650894150 0.0709756427972 -0.0448038150365 0.1389671125074 -0.0111474913119 0.0290362626135 0.0584012414100 0.0315378469159 0.0657171330304 0.1657148120081 0.0812852082470 0.0004676642042 -0.0343819168627 -0.0062155091544 0.0994753920890 -0.0481727457719 0.0695926839886 -0.0566455022908 0.0879575186796 0.1270513876554 0.1323994828294 0.0623893464168 0.0881699923672 0.1612154998825 0.2314096202808 0.1795858046898 0.1653019925873 0.1705903275609 0.0660312782412 0.0350044658981 -0.0425443346305 0.0557211170627 0.0822921340014 0.1101402472106 0.0180931351232 0.0031243844530 0.0770797125628 0.0908078257054 0.1143831570089 0.0396804277083 -0.0733761522678 0.0194414757088 0.0867169324614 0.0816351956672 -0.0926798264902 -0.0507476982989 0.0022906611405 0.0472027195613 0.1232921641403 0.1592899765728 0.1953464858203 0.2105761950145 0.2669793305982 0.1957133671818 0.0877752003694 0.1116942054691 0.0876066192902 -0.0019255651621 -0.0245112088694 0.0143633807332 -0.0409744898140 0.0630300602862 -0.0194374220682 0.1437887857444 0.0076563910194 -0.0309622069892 -0.0188133474987 0.0538470215980 -0.0013966208647 -0.0240313770717 -0.0454014330891 -0.0975075081577 0.0757624845837 -0.0717715802149 -0.0307868997601 0.0209329240353 0.1402743747730 0.1767962737330 0.1765053016722 0.0876300898577 0.0625798063292 0.1760698542444 0.0298255841514 0.0768569354686 0.1252169081469 0.0249880116348 0.0402413399712 0.1013862914975 0.0194088264017 0.0679542577882 -0.0206725602483 0.1442345724532 0.1571025495447 0.0243653568225 0.1015873642390 0.0367944915902 -0.0202149886831 -0.0906071480857 0.0155642881164 0.0247060600848 -0.0962099858388 0.0326449482226 0.0315510706623 0.0516599204930 0.0118068843539 0.1793547786964 0.0464413138857 0.0240856404356 0.0810459214967 0.0738829978683 0.1162648685763 -0.0710014080917 0.0015045603485 0.0646020396133 0.0316191350250 -0.0597719907669 -0.0117139833505 -0.0332556787194 -0.0558576790649 -0.0613579058969 0.0818151693944 -0.0419905770491 -0.0024251759874 0.0275967870812 -0.0209072850697 -0.0220193911763 -0.0131828502802 -0.0600051680443 -0.0235376869168 -0.0222581788241 0.0465495744384 -0.0313612076418 -0.0145395334546 -0.0338444157932 0.0093416858389 -0.0102735708399 -0.0495064227096 -0.0777191823940 0.0223611531322 -0.0796888229139 -0.0766890252897 -0.0469088325359 -0.0608262084157 -0.1424043574955 -0.0945945000836 -0.0650111352767 -0.0127420943381 0.0548513006305 0.0569182733950 -0.0276950577913 -0.0560172378276 0.0220086446983 0.0127102145888 -0.0679533808750 -0.0737315550222 0.0642720616856 0.0332649087959 0.0522619435052 0.0091828871880 -0.0841470195746 -0.0750384964835 -0.1318625923487 -0.0703137213923 -0.0947796046264 -0.1798941742006 -0.0532038566142 -0.1734801134869 -0.0833076960603 -0.0752324185819 -0.2110718081992 -0.0122502423249 -0.0791333188150 -0.1087494755872 -0.1557398482508 -0.0150096393594 -0.1196009076481 0.0138773462535 -0.0137517317182 0.0033302666614 0.0409168427304 0.0223574155724 0.0822278640792 -0.0527016761769 -0.0146721878182 0.0351307963761 0.0420656449191 -0.0189030797867 -0.0962615214493 -0.1159558747492 -0.0038189318102 -0.1371018929924 -0.0884051083762 -0.1731887398585 -0.1023787281314 -0.1119679654603 -0.0663849711954 -0.1502053934244 -0.0487330770584 -0.1006130343216 -0.0180120755624 -0.0690212435589 -0.0358959025302 -0.0965304164918 -0.0537143740697 0.0344548638370 0.0295929243643 0.0902224747571 -0.0806646928016 0.0504661429263 -0.0074776952954 -0.0569351246085 0.0336611402478 -0.0805406801597 0.0196950534040 0.0843494869289 -0.0615234036168 0.0363461683747 0.0502448900458 0.0435932771182 -0.1079329374932 -0.1153756377401 -0.0468265261729 -0.1167668955736 -0.1155559307316 -0.1084216175353 0.0200639198234 0.0155504819908 0.0777562003857 -0.0230018324786 0.0238824830368 -0.0635799660561 0.0244820644031 0.0849741177671 -0.0384218142911 -0.0621864969164 -0.0405787379263 -0.0491579470150 -0.0645579850591 -0.0968677890358 0.0171948497995 -0.0190892550754 0.0135432600989 0.0250323493674 0.0529696529692 -0.0107099834513 0.0918684873937 0.0331084435895 0.0681344130489 0.0357942504786 0.0355211359417 -0.0485829812805 -0.0840367595370 -0.0139637616138 -0.0793462851250 -0.0015303741070 0.0819026479545 -0.0934463093534 -0.0341844167144 0.0308262122681 0.0910554970575 0.0429569101258 0.0077737629926 0.0550551047002 0.0858153886979 0.0231669547031
-0.0242929713390 0.0001616117856 -0.0801377223651 -0.0649621961527 -0.0620348879269 -0.0758964759771 -0.0613093575822 0.0391556100663 0.0134288033008 -0.0464235112074 0.0959302149693 0.0813797006977 0.0633666963748 -0.0059155080158 0.0323395320441 -0.0286880825395 0.0599887736081 0.0959542375981 -0.0141917520180 -0.0550800285163 0.0463451286539 -0.0038818920773 -0.0017287026730 0.0184993286228 -0.0963574197062 0.0537453988857 -0.0729808254752 0.0671147741244 -0.0581684990643 0.0829958319587 0.0563544416950 0.0493913669297 -0.0886877373692 0.0093622994618 -0.0722677850028 0.0943179676927 -0.0177533341414 -0.0819647930958 -0.0708401922133 0.0173636294274 0.0123096100291 -0.0095588637285 -0.0787195417337 -0.0299844994201 -0.0592722836729 -0.0495499355592 -0.0129346515581 0.1001645858084 0.0753417162424 -0.0056687547552 0.0896885571570 0.0051043613983 0.0880668091293 0.0340547627478 -0.0105479061176 0.0695051202929 0.0069116226283 -0.0535608582030 0.0854390484651 -0.0680528684928 -0.0040431121155 0.0082113484003 0.0686154318490 0.0862364088526 -0.0842377077833 -0.0350026471910 0.0491149810361 0.0602786582732 -0.0636194075666 0.0726483879707 0.0984172189145 0.0151314366045 0.0338561974804 0.0728259173807 0.1051140932896 -0.0257673217306 0.0827918380262 0.0917824915127 -0.0239914454246 -0.0072536922434 -0.0027783171080 0.0327552921819 -0.0990707582347 -0.0357119119424 0.0005264290998 0.0654357182926 0.0179825798083 -0.0400535128914 -0.0177032468099 -0.0925900318952 -0.0928726499869 0.0338638875346 -0.0840665990394 0.0010947849617 0.0959653064042 0.0905795909037 -0.0510724786551 0.0324804795596 0.0712047473795 0.0432529662357 -0.0778870785320 0.0495774798388 0.0589020190333 0.0773440944353 0.0710127676023 0.0799390063612 0.0643781958405 -0.0342912682867 0.0201918747328 -0.0502994772695 -0.0559762690370 0.0010741750090 0.0861012778604 -0.0026773493949 -0.0630230165398 0.0569759484067 0.0258045532372 0.1017799137559 -0.0933190401443 0.0853080610083 0.0669256102153 -0.0457180501492 0.0451985492464 -0.0918466251762 -0.1163205264370 -0.1397557909374 -0.1029579925770 -0.1493146338966 0.0256219033464 -0.0044214799265 -0.0711832186676 0.0457453833585 0.0873316780132 0.0463732911495 -0.0443256781927 -0.0268575960088 0.0086895400899 0.0656331377474 0.0613106109501 -0.0540175344071 0.0288908052727 -0.0342145422466 0.0115560165264 -0.0921512616927 0.0835417884025 0.0134495997306 0.0158655468405 0.0535756995513 -0.0552393295395 0.0658862340348 0.0472428362536 -0.1283611748353 -0.1732684922567 -0.1002482246995 -0.0208606577425 -0.0959619951440 -0.1825399086523 -0.0690309143954 -0.0423128339197 -0.0634627679644 0.0889144496630 0.0938135600223 -0.0633727884600 0.0181150702192 0.0670823125508 0.0438665414657 -0.0154753821412 0.0054068506727 0.0539396302037 0.0701359752139 -0.0932189668287 0.0313791694537 0.0934655109322 0.1115917422702 0.0237821968197 0.0904417109098 -0.0259810617473 0.0150253744213 -0.0314927342377 -0.0861134850527 -0.1179822487001 -0.0815674917374 -0.1241710228495 -0.0633847859450 -0.0693380189933 0.0106733308504 -0.0371197836954 -0.1279286021110 -0.0114761589130 -0.1129846504276 -0.0780369373018 -0.0334829078232 -0.1019256070504 -0.1129836166121 0.0472199668084 -0.0897139490546 0.0572734556722 -0.0190924964482 0.0114337982446 -0.0583206132151 0.0112537399641 0.0975578240101 0.0968004252162 0.0042933611336 -0.0139950987989 -0.0308631768222 -0.1417621853351 -0.1792484845769 -0.0681098968814 -0.1485771235509 -0.0781473095604 0.0029045298129 -0.0823035332185 -0.0356136553146 -0.0927724821428 -0.0711809448209 -0.1529333059326 -0.0942279929839 0.0035385876686 0.0152042110216 -0.1341414114882 -0.0810847470087 -0.0568383446727 0.0164506463238 -0.0987282497202 -0.0163258668126 0.0602444741035 0.0471255074739 0.0244502008228 0.0736925909741 -0.0714019024136 -0.0775474104239 -0.1300096745739 -0.1123381874077 -0.1524261218098 -0.0949801270381 -0.0904092628517 -0.0165527876924 0.0014292658278 -0.0020560680753 0.0014565105344 -0.0845300420345 -0.1213648284910 -0.1046460592284 -0.1677492926861 -0.0875959440919 -0.1084354054581 -0.1847015817004 -0.1323607071664 -0.0937564658823 0.0269482860303 -0.0829615257886 0.0204233236513 -0.0656257038519 0.0193373351531 -0.0571591945629 -0.0696753123671 0.0733134600586 -0.0741810208281 -0.0229540349510 -0.0992775098774 -0.1454680756826 -0.1618416684807 -0.1083344953367 -0.1307391471828 0.0876611391226 0.0085528142986 0.1197637178556 0.0250921160576 -0.0653184431613 -0.0946131989648 0.0224500251746 -0.1720570425384 -0.0451084927152 -0.0606121839852 -0.1736092832291 -0.1155613871221 -0.0132245706347 -0.0260431293271 0.0976053076915 0.0562321935891 -0.0650260838513 0.0160766949438 0.1022349640508 0.0531662222128 -0.0982539007463 -0.0000543106309 -0.1511575606032 -0.1086967727921 -0.0702140611483 -0.0197200240151 -0.1841521851628 -0.0042493519207 -0.0063993678243 0.0355410678500 0.1020396881606 -0.1059514946895 -0.0494017376151 0.0025013977884 -0.0351826819347 0.0331174300948 -0.0423220336249 -0.0902302083473 -0.0956851594585 -0.0921115645524 -0.1178319703859 -0.0795781344580 0.0423788584540 0.0153072644523 -0.0594794904560 -0.0115750293028 0.0769354493587 -0.0996699971816 -0.0127513167837 -0.1114686852628 0.0402498988033 -0.1293454211833 0.0658472700075 -0.0604195064527 0.1178961195608 0.1381515884805 0.1334837596533 0.0444137739725 -0.0633148948458 -0.0655601924424 0.0198436869511 -0.0676483863284 0.0081313441752 0.0708411857638 -0.0337758389602 0.0214472028368 -0.1255297189891 -0.0771286063616 -0.0268478062632 -0.1112269665577 0.0469945296985 0.0180067299633 -0.0566178888629 0.0711536447204 0.0153791959464 0.0590047396004 -0.0527984443491 -0.1279221578111 0.0096491112139 0.0597257958276 0.0723833452431 0.0410364426605 0.2303900554083 0.1010309887969 -0.0320864380862 -0.0781941687122 -0.0214706500159 0.0918773854039 -0.0920955605946 0.0160498136570 0.0303966127220 -0.0128743412684 -0.0001297768085 0.1133887676766 0.0481397840895 0.0563813608119 -0.0291199796843 0.0216941907317 0.0015584781599 -0.0899206376616 0.0897226612380 -0.0665834526180 -0.0536957335414 0.0801902638787 -0.0185193228198 0.0828914529628 0.0889295706046 0.0598992637355 -0.0079594782862 0.1519480897119 0.0877068658837 0.0036718780426 -0.0700010307344 -0.1735531807653 -0.0618312565201 0.0533911761324 -0.0402356220452 -0.0564243960218 0.0159576337875 0.0451905073785 0.1453084584641 0.0665010009722 0.0364023601319 0.1253377862397 -0.0852619105122 -0.0464317462241 -0.0125981306244 -0.0153282197840 0.0340783761864 -0.0135508449922 -0.0320959876717 0.0704642905174 0.0042141061308 0.0328903942784 0.0884086386888 -0.0003506274232 0.0639171236936 0.0856626181579 0.1525066857718 0.0869850157893 -0.1747059311637 -0.1561743709953 -0.0829951754073 0.0887600168430 0.0620501316411 0.1044836617315 0.1593908765050 0.1292557051073 0.1167055166473 0.1559427387391 0.1123091904454 0.0701774439470 -0.0884837030527 -0.0339623963668 -0.0200159829632 -0.0760815584003 -0.0797278034240 0.0385497321428 -0.0128444963799 -0.0976295582878 0.0535464741880 0.0491331346407 -0.0165896898456 0.1130160977787 0.1211529998776 0.1272982350908 -0.0367214514697 -0.0873206857353 -0.1483686266097 -0.0340928831365 -0.0107915392341 0.1139746427115 0.1748050576927 0.0865972275082 0.1621575005999 0.1573805782374 0.1016290591816 0.0423352591829 0.1467909242207 0.0103041839669 0.0525840860785 0.0138154523684 -0.0208236714048 -0.0475251155861 -0.0397166849461 -0.0547434696055 -0.0063822886521 0.0014528697859 -0.0494465600459 -0.0157986245662 0.1336195258647 0.0707840541402 0.0562682621044 0.0666873304532 -0.0733716731418 -0.0968493025388 -0.1577244346300 -0.0131516022210 0.0337310428007 0.1415853614658 0.0535961060836 0.1696605754597 0.1755957645508 0.1190650625231 0.1440627219316 0.0785185980103 -0.0495523640125 0.0784180101748 0.0342010856705 -0.0504043906747 -0.0538967480843 0.0958136092998 -0.0714753027250 -0.0300802967013 -0.0620288615158 0.0132680211837 -0.0358267812207 -0.0834621467270 0.1051797261009 0.0184307489113 -0.0407876288540 0.0461141360627 -0.0487862423190 -0.1633945656598 -0.1238069671758 0.0648848745695 0.0946581934392 0.0942249161706 0.2062022888842 0.2537074399994 -0.0088059676181 -0.0559028148188 0.0989620710999 -0.0899368874061 0.0396057469976 -0.0925036686708 0.0083846861107 -0.0274040960666 0.0055452849293 0.0726736416957 -0.0341315542166 0.0542354232161 0.0064396464571 -0.0283966505185 0.0429434923104 -0.1752253677326 -0.1309144312195 0.0332015328554 -0.1255747918038 -0.0659626060482 -0.0641433818142 -0.0286337224085 -0.0791275046990 0.0341930233882 0.1818035555751 0.1139695106766 0.0545952415951 0.0175718018335 0.0461719905413 0.0131037823055 0.0638775185999 0.0227907421794 -0.0632393024905 -0.0544285959939 0.0292818104804 0.0249478503803 -0.0901281057421 0.0856070600560 -0.0355078357207 0.0133248574326 -0.0752022154549 -0.0018027923160 -0.0761130984218 -0.1132877626796 -0.1816244260856 -0.1979270795165 -0.1992231973585 -0.1683749806466 -0.0996839660904 -0.0497494016914 0.0526262684669 0.0714132997697 0.1576058233956 0.1604916112369 0.0897170498186 -0.0324286835351 -0.0832771367409 -0.1098986766633 -0.0728728845072 -0.0736012834712 -0.0347653763036 -0.0450178896725 -0.1105627139867 0.0805194298055 0.0483956835546 -0.0461380309412 -0.0214967470321 -0.0412286880175 -0.0154731316886 0.0601009302563 -0.1144875495446 -0.0838260873235 -0.2204850398427 -0.0819843978668 -0.0941601399096 -0.1973796007509 -0.0062216713844 0.0234533583679 0.1256248418007 0.2261683391242 0.1998507687419 0.0580488969371 0.0432957396430 0.0082195437177 -0.1460161007720 -0.1729135523280 -0.1198400229627 -0.0863742460971 -0.0506066750239 -0.1150551846690 0.0148777027664 0.0868207389576 -0.0972318637881 -0.0272794863561 0.0421646695980 -0.0082825917880 0.0819458818855 -0.0339908361432 -0.0466534788270 -0.1216711441252 -0.1367779353008 -0.1956518642374 -0.1482684975569 -0.0582760904088 -0.0308885144626 0.0766359199527 0.0716969722316 0.1124681193585 0.0050578865803 0.1214842913750 0.0828625064131 0.0269109190257 -0.0219130145635 -0.1539035236202 -0.0462096730798 -0.1182398002608 -0.1261003574034 -0.0296520075851 -0.0069225065010 0.0672444301000 0.0897881088948 0.0878331127291 0.0204029894317 0.0287738535650 -0.0527749085016 0.0381451212565 -0.0153347591259 -0.1606402097175 -0.1569528092491 -0.0289589494721 -0.0078218850768 -0.0929113370195 0.0777589881383 0.0456589342806 0.0917553194182 -0.0519085080471 0.0803025825357 0.0523227322672 -0.0210999097434 -0.1387851412876 -0.0716726480511 -0.0139220331817 -0.0991855089752 -0.1601335332386 -0.0424288962018 -0.0954110491213 -0.0105476417693 0.0404222311366 0.0758525807998 0.0664935891064 -0.0111646444535 0.0463016972762 -0.0017358945462 -0.0837338091563 -0.0624570724675 0.0554225235352 -0.0612566035155 -0.0340353452250 -0.0122089654731 -0.0452065673746 0.0759414086283 -0.0539217228112 -0.0256447355227 0.0107286561193 -0.0537084877765 -0.0747591578170 -0.1427927228464 -0.1461361405552 -0.0084083792615 -0.0149691317056 0.0455320660206 -0.1028130259724 -0.0474487411553 0.0837716914562 0.0324398481865 0.0691877756895 -0.0553222772059 -0.0461494333603 0.0787288991090 0.0253338350578 0.0457629777033 0.0045080745054 -0.0504017710185 0.0479831542178 -0.0081562012425 -0.0435829791034 -0.0669437958608 -0.0206929937257 -0.0470478193867 0.0239148711374 -0.0017263846593 -0.1259294120355 -0.1459140569251 -0.0706006487044 0.0221578723557 -0.0974686529310 0.0368621819016 -0.0047882593244 -0.0663279253811 -0.1021938945631 -0.1087473468414 -0.0025718586357 -0.0649671779055 0.0760015189523 -0.0363722710288 0.0881552938290 -0.0709580690730 0.0774517223281 0.0310674264252 0.0904150483593 -0.0839609304158 -0.0832048729000 0.0409705944788 -0.0289135790727 0.0403759978884 -0.0494302649347 0.0840594546415 -0.0891330421166 -0.0283804613510 0.0099799334831 -0.0610712682798 -0.1351179242795 -0.0372364904795 -0.0083782176904 0.0261908576160 -0.0594108236921 -0.0234299196208 -0.0428430855095 0.0869884538092 -0.0517602300332 0.0493601179515 -0.0272745837302 -0.0558581094469 0.0870080471697 0.0994040212461 -0.0139364855575 0.0433830304343 -0.0560815060606 0.0602023715409 -0.0354312875983 0.0480790188256 0.0507006157513 -0.0679553230022 0.0588576620171 -0.1046741656351 -0.0027378813128 0.0724471668585 -0.1206571697277 -0.0081451761301 -0.0246927126670 0.0546876142217 0.0836933024606 0.0159847566220 0.0549577156057 -0.0007491084879 -0.0724435815507 0.0064913775232 0.0129981328075 0.0305365853570 0.0233686958470 0.0685538331342 -0.0094706242509 0.0938831144284 0.0995701416877 -0.0977839282705 0.0118215266050 -0.0123541957803 -0.0922708941678 0.0449048726571 -0.0492077571853 0.0408171004826 0.0911166373205 0.0013110741657 -0.0286329268778 0.0022370198191 -0.0185121174663 -0.0915282858398 -0.0694137982890 -0.0352186137967 0.0304137527513 -0.0525549859395 -0.0622095869687 -0.0582234423090 -0.0018363266105 -0.0369323804500 0.0294514439823 -0.0035883140273 -0.0152708503077 -0.0457449697751
-0.0900789548031 -0.0073147395979 -0.0048234445948 0.0859990901985 -0.0220036616277 0.0720090166065 0.0118763324116 0.0617417984883 -0.0184759614349 -0.0928931689091 -0.0122824043438 -0.0161475163070 0.0653379382104 0.0065998813118 0.0327044722923 -0.0132350571565 -0.0747023403472 0.0095202423704 0.0428120545489 0.0395320871793 -0.0431507511544 0.0770186090255 -0.0888715569611 0.0064736831228 0.0780151829884 0.0998513790922 0.0338396903860 0.0885076668254 0.0903327979842 -0.0222668608425 0.0478119142444 0.0576445516997 0.0704698261610 -0.0111199080264 -0.0626150113939 0.0665110758805 0.0297777171834 -0.0206732184018 0.0763193346122 0.0787410914748 0.0775424662986 0.0792884956683 0.0402643043305 -0.0805970535843 -0.0866460851020 -0.0018989198721 -0.0053863429555 0.0068811656685 0.0635399522676 -0.0065041628145 0.0868198345121 0.0436382070191 0.0681268582332 0.0558879852654 -0.0454248379007 -0.0234099923054 -0.0565112605225 -0.0943795947197 0.0201250086159 0.0437473183665 -0.0922092182752 0.0614115158095 -0.0196842285616 0.0075213592756 0.0901483387444 0.0266588152428 -0.0566879619558 0.0702457103545 0.0081296519146 0.0898935621462 0.0544622938905 -0.0068098826330 -0.0561606054716 -0.0472902534563 0.0215230320798 0.1109643966885 0.0838593060879 -0.0042711659146 -0.0706034338990 -0.0857142342457 0.0655381224013 -0.0105091701599 -0.0790858880927 -0.0041662547190 0.0515242166367 -0.0681532020062 -0.0213323935507 0.0466462189820 -0.0026699838768 0.0207167803737 -0.0001033467219 0.0698274728938 -0.0403711245461 0.0472998680570 0.0550029662886 0.0106588972963 -0.0595949512142 -0.0570251600630 -0.0484050883425 -0.0429867803042 0.0780106069511 0.0555909220002 -0.0093730714165 0.0030888820078 -0.0369792835057 0.0223497762389 0.0856616126515 -0.0804726955943 -0.0020876186460 -0.0668124704912 -0.0561819957381 -0.0735591738329 0.0874293331991 0.0352672897111 0.0660476599635 0.0388895290485 -0.0478029774785 -0.0209326409598 -0.0734081270671 -0.0167539359747 0.0324262293470 0.0465645963065 0.0220219954461 -0.0015835787617 0.0124180434590 -0.0921511479611 0.0279464545376 0.0665980872918 0.0083921877169 0.0270856449660 -0.0979431561719 -0.0070108985856 -0.0653411600969 -0.0239122614809 0.1022517220579 0.0474092730263 0.0818085985612 0.0917746695173 0.0991555121917 0.0704958779521 -0.0682875782076 -0.0702444365232 0.0885199042828 0.0417941943872 -0.0235288366230 0.0886289967911 0.0000141807458 0.0270640369485 -0.1278981325354 -0.1628658564980 -0.0205445095644 -0.1004275567683 0.1024591032322 -0.0459491122202 -0.0289206285729 0.0633203017623 -0.1597711461726 -0.1084664758358 -0.0318859235118 0.0642751511436 0.0138286320909 -0.0561574025672 -0.0621045291095 -0.0061228556018 -0.0010150997080 -0.0665736603660 -0.0590020298926 0.0509604787774 -0.0334769282458 0.0058760128066 0.0883535211707 0.0472225974098 0.0249747434663 -0.1255301389087 -0.0884255964507 -0.1281198958949 -0.1601658392259 -0.1640038190582 -0.0480594352555 -0.0092104082614 0.1312469043707 0.0280208633434 0.1631709911484 0.1754586825308 0.0678024227206 0.1661458694732 0.1176851953809 -0.0008576214902 -0.0192664159273 -0.0823417222973 -0.0066139960856 -0.0267445500384 0.0024176528422 0.0570220856581 0.0376185135958 -0.0035454772082 0.0070235214125 0.0651783743343 -0.0508460283897 -0.0157253637261 -0.1188096774502 -0.0010924364328 -0.1610869124655 -0.1599733306096 -0.0129061261079 0.0009143125757 -0.0670723712878 0.1083368949073 0.0892384612713 0.0716008110386 0.1201537407256 0.3122781215419 0.1953483520351 0.0377077012341 0.0927480652925 0.1031909501109 0.1585799881733 0.0004587501022 -0.0449002915496 -0.0641827556069 -0.0181043434736 0.0185183657126 -0.0413763770253 0.0031469347654 -0.0866165428008 -0.0949202744032 -0.0301130340111 0.0042699734814 -0.0127195917515 -0.1242884095189 -0.0696127265397 0.0447000637833 -0.0265773644488 -0.0920333122102 -0.1009141622889 0.0188830108385 -0.0475377231290 -0.0554482506762 0.0625395318595 0.1610980781464 0.0573635103600 0.0073568095198 0.0355945245108 0.0073954992394 -0.0959808829086 0.0902840837693 -0.0832498125630 0.0275504543306 -0.0706517138684 -0.0489318073727 -0.0102094717149 0.0795797468857 -0.0969791302792 -0.0179946163398 -0.0684872801154 -0.0501119419570 -0.0477208539350 -0.0035636261685 -0.0072532898776 0.0772031187897 0.0024516047300 -0.0461880225213 -0.0483312441653 -0.0708735929474 -0.1032152019517 -0.0466575086555 0.0086891792022 0.0260698303899 -0.1753178977972 -0.0193268657812 -0.0729435757131 -0.0193215079481 -0.0267639396272 0.0209124018761 -0.0214801372081 0.0430660228712 -0.0295708530655 -0.0139327565380 -0.0769916329267 -0.0590850782429 -0.0030412848811 0.0086355437460 0.0249547896553 0.0185495622690 -0.0421509867502 0.0431742096644 0.0844953109745 0.0028764870558 -0.0052755669816 -0.0872009606746 0.0702623730266 0.0559148598445 0.0451075878691 0.0451527079296 0.0188169917777 -0.0101093110558 -0.0816502826316 -0.1166899093909 -0.0803625633797 -0.0404515536216 -0.0882060946600 -0.0897960440859 -0.0682784205802 0.0022089919424 0.0623444805861 0.0830188140467 -0.0233048323866 -0.0464593850418 0.0624729956394 -0.0983848904109 -0.0757743039197 -0.0839072695047 0.1209643435099 0.1638447904844 0.1555167285015 0.0365495125016 0.0965299426140 -0.0279674398327 -0.0307398144898 -0.0804795716428 -0.0056180685462 0.0882110341299 0.1583104904749 0.0745996436454 -0.1275816365938 -0.0594608621388 -0.1093929931827 -0.1003848546263 0.1399198266800 0.0115818777396 0.0422589731061 -0.0433890375918 0.0187084287080 -0.0735896532867 0.0923936581585 -0.0484584398643 -0.0398308099575 0.0875598339916 -0.0350062277561 0.0296165770518 -0.0140439231823 0.1106089424778 0.2423597829257 0.2213572910581 -0.0350279070364 0.0170459296042 0.0877550304966 -0.0885988952036 -0.0165842754091 0.1362549754063 0.2789555138735 0.0966371481569 0.0417283999436 0.1189770997028 0.0181263003306 0.0533103745019 0.1848330525573 0.0246464035036 -0.0406101462783 0.0005689248132 -0.0060410347454 -0.0055532186898 -0.0963045975993 -0.0627338474460 -0.0770261244269 -0.0435201574828 0.0583039794607 0.1195793826421 0.1946013343651 0.0980331962442 0.1170665691033 0.2054634696087 0.1150090511002 0.0543570886264 -0.0560184703063 -0.1139632403589 0.0560036438040 0.1944911175356 0.2730262160715 0.1634690268155 0.0581017720524 0.0783395812212 0.0024944885916 0.1948355947088 0.1753169970789 0.1046619400657 0.0024971739205 -0.1108717909766 0.0255647063637 -0.0597927948431 0.0855144197590 -0.0995765859575 -0.0679707295335 0.0996610760055 -0.0302547200388 -0.0419316195864 0.0499035355387 0.1551046547557 -0.0114553065116 0.0137918027456 0.0752481492220 0.0338432292721 -0.0282590464360 0.0278591617681 -0.0070927605445 0.1072400871715 0.1672015731477 0.0990867759595 0.1321714437025 -0.0270821460528 -0.0720050432037 0.0417718538487 0.0237957427817 -0.0651087715201 -0.0699693874154 -0.0770212438584 -0.1049815729230 0.0047786905425 -0.1043056560995 -0.0143826885345 -0.0898615190557 -0.0835211684074 0.0688256554617 -0.0745248664022 -0.0201073130322 0.0507078428468 0.0742440061076 -0.0318737016120 -0.0364756991889 -0.0666768222228 -0.0238656752463 -0.0387548454943 -0.0409639087155 0.0896293319432 0.0773000506171 -0.0697475399546 0.0468589454548 -0.0153764335013 -0.0941249479678 -0.0309748618863 -0.0563422871826 -0.0476189539512 -0.0005082941926 -0.1653107596316 -0.0666998329711 0.0382354708789 0.0424192848394 0.0890577141478 -0.0843928876068 -0.0052049822354 -0.0507395730994 -0.0665926116937 -0.0035630363107 -0.0150822613036 -0.1486872497729 0.0328605044220 0.0170068575991 0.0021446850359 0.0173261511493 0.0439799345718 0.0674145965189 -0.0697234159493 -0.1339573328423 -0.1373898961954 0.0152140077645 0.0186591979383 -0.0379076978892 -0.1244504351032 -0.1519089469086 -0.1018096796380 -0.1791289439748 -0.1958671484174 -0.0909976755583 0.0258912067959 0.0009380978046 0.0261477564338 0.0030164711209 -0.0648128587842 -0.0225361991181 0.0701920003022 0.0523478884152 -0.1422623694055 -0.0144547018758 -0.1198899919370 0.0492740317529 0.0046337411422 -0.0035955174386 0.0295890093560 -0.0333055452620 -0.0248707478588 -0.0795995853989 -0.1146547506435 -0.0514462150204 -0.0356216687328 0.0402477768192 0.0717014564636 -0.0788199648133 0.0206356939861 -0.0639303197740 -0.0262145657782 -0.0683061101094 -0.0823610762916 0.0186093400924 0.0876534372398 0.0001329914038 -0.0298113378566 0.0847123411615 0.0019475226456 -0.0418741180148 -0.1556860843874 -0.0693670839778 -0.1088715819956 0.0239301170103 0.0072300329424 0.0652960594224 0.0194697713665 -0.0154204615988 -0.1107860303762 -0.1126672079840 -0.0080805522086 -0.1466590994255 -0.0187932195588 -0.0207181420931 0.1318278595586 0.0947219064651 -0.1314516528151 -0.0245664463114 -0.1333036419519 -0.1532911381906 -0.1139928476112 0.0513071332331 -0.0608684808252 0.0579371355616 -0.0875465738722 0.0789462171725 -0.0597812094052 -0.0276561968052 -0.1030884937363 -0.1326061056585 -0.1394022599437 -0.0464590736390 -0.1174550183763 -0.0926637908850 -0.1914959612307 -0.0919078837670 -0.0401591296351 -0.0278659253857 -0.0521793888298 -0.0279009141074 -0.0812383164948 0.0567880019509 0.0428336481784 0.0978860835196 -0.0952885324705 -0.1247536039803 0.0133768897506 -0.0886957751272 0.0442323145266 -0.0192322554907 0.0842234754645 0.0774326973079 0.0224255436440 0.0156016378431 0.0646875784090 -0.1113133695892 -0.0680277942073 -0.0767003422644 -0.0719370517362 0.0405582439395 -0.0966367918414 -0.1605288025704 -0.0527776333796 -0.0933885739440 -0.0215174084382 -0.0352387034262 0.0115919093023 -0.0051044171256 -0.0026389904475 -0.0108784146347 0.0820332421804 0.0027252061109 -0.0929317973785 0.0543121021083 -0.1151279393570 -0.0481529349161 -0.0562723468032 -0.0665275501675 0.0137808399972 -0.0358987077482 0.0153340567206 -0.0586656245678 0.0451508811255 -0.0435709323889 -0.0352038881122 0.0933681857630 -0.0864347864003 0.0184680091159 0.0193679320223 -0.0459140732707 -0.1612560392076 -0.1270521303834 0.0051357641924 -0.0411181011381 0.0270175285397 0.0471477109612 -0.0444051366572 0.0483256476378 -0.0517140830869 0.0583588134861 0.0318384099645 -0.0546298795578 0.0065017400426 -0.0029756608667 0.0112610673234 -0.0793185389481 0.0000845619589 0.0130290539767 0.0815416635421 -0.0379368938628 -0.0649598715624 0.0642435809566 -0.0701928955103 -0.0364275119869 -0.0596110717645 -0.0769363310478 -0.1161879865213 -0.1278590921586 -0.1383929541849 -0.0265463035001 -0.1412008770781 -0.0643741412899 -0.1280641357662 -0.0568789085263 -0.0229955271668 0.0925256770115 0.0664443409253 0.0614533962937 0.0886397510202 0.0614363173515 0.0740958586071 -0.0037211343406 -0.0413325691143 0.0405848461467 0.0776871277496 0.0164335673088 0.0726142837734 0.0364402317244 0.0293769529569 -0.0607346862239 0.0364141018714 0.0388717354338 -0.0253868221420 0.0608708838951 -0.0027975444615 -0.0632434251336 -0.0297976221974 -0.1028939886689 -0.0113117686595 0.0137461875768 -0.0283084399162 0.0386451995894 0.0930689061032 0.0682424550492 -0.0397129801546 0.1364166807426 0.0625698969524 0.0300756216600 -0.0315420829750 0.0248871397184 0.0510875722880 0.0645719844943 -0.0344675830515 0.0090963046564 0.0834461710441 -0.0429047754246 0.0950708541452 -0.0616012297134 0.0872324147426 0.0264251624016 -0.0674754292978 -0.0190342188682 0.0782545059636 -0.0240668107278 0.0068292769156 0.0500761006616 -0.1778954684415 -0.1031774236110 -0.0825423194301 0.0761694184428 0.0151974486236 0.0818869705103 0.0891261620669 0.1583553538336 -0.0071923961669 0.0096336303596 -0.0004550981077 -0.0529463621551 -0.0148476320644 -0.0892400328548 0.0812575009359 0.0045904828241 0.0847180898653 -0.0005625700268 -0.0775795177934 0.0938678175806 -0.0659649569491 -0.0417942943224 0.1352536544700 0.0506388126271 0.0931450945290 -0.0269744507503 0.0823008099402 -0.0360385603683 0.1066841418691 0.0968420644142 0.0534754931705 0.0932779335660 0.1203980122100 0.0396480168516 0.0989468534065 0.1775575530935 0.0491122596291 0.0980987039910 0.0870412276640 -0.0050098478767 0.0298700540746 0.0563780989692 -0.0435660944253 0.0711454532551 -0.0368023008560 0.0576769244264 -0.0388741267359 0.0249567451656 -0.0244425173634 -0.0406134165542 0.0955843820274 -0.0123442069081 0.0195881668368 0.0800503412517 -0.0035434436461 -0.0390597150343 0.1315420697705 0.0161570151131 0.1322756624518 0.0680942633009 0.0445182425880 0.0894248905357 0.0584434522978 0.0208210091078 0.1166749985351 0.0544694082147 0.0319271854645 0.0553138757004 0.0671671785270 -0.0421506664461 0.0383428433332 -0.0526445092450 -0.0977370117699 -0.0583977968402 -0.0418061025436 0.0311925913869 0.0031797664851 0.0092117265104 0.0131732486054 -0.0440099717200 -0.0861834230210 -0.0628418242396 0.0321216883095 0.0459152850955 0.0461834518792 -0.0536401496317 -0.0554278486548 -0.0814553561168 0.0263137733654 -0.0641068882576 -0.0552043564357 -0.0272077461338 -0.0419891912029 0.0196199254891 0.0456447254065 0.0957920130694 0.0380119786446 -0.0731222509471 0.0358643249660
0.0507001015439 -0.0953299106799 0.0750335037382 0.0235971449545 0.0870459589544 -0.0011719777834 -0.0274718951283 0.0320857414563 0.0037956318520 -0.0859263258667 0.0247539157160 0.0800992956996 0.0797270998680 -0.0056414522499 0.0850116622996 -0.0382693290081 0.0857776717918 0.0674154337053 0.0883485884613 -0.0197092976699 0.0732348697830 -0.0477530449498 0.0093283960472 -0.0450514959956 0.0480768672723 -0.0370523124070 -0.0445220144608 -0.0288714971108 0.0310268856239 0.0039797416556 0.0015081703069 0.0603098238245 -0.0651982550793 -0.0345130199145 -0.0722245090314 -0.0859590807384 0.0386989766536 -0.0046511596178 0.0488923906619 -0.0019568620407 0.0229874938272 -0.0089285038453 0.0536382143157 0.0194502454733 0.0133339505122 -0.0870759253023 -0.0772982155693 0.0599748180224 -0.0137883220776 -0.0488067860740 0.0911829360430 0.0386151056035 0.0716194910234 -0.0450551677726 -0.0413408405943 -0.0411469256408 0.0131462807177 -0.0772052366848 0.0016293790324 0.0136299619734 0.0796590089729 0.0678220165438 -0.0155959531961 -0.0347807401245 -0.0402511110715 -0.0652199254876 -0.0374457495288 0.0994283460151 -0.0363317013097 0.0630675691078 -0.0101574717475 -0.0390999709120 0.0547782476291 -0.0410408053768 -0.0307734586465 -0.0407991016447 -0.0378781699856 -0.0843792111571 -0.0541446496210 0.0712808316421 0.0750642124438 0.0131226019973 -0.0947214446924 -0.0765787751057 -0.0221619119584 -0.0429877150649 -0.0578285595100 -0.0348808447498 0.0993225219865 0.0306451904538 0.0052554430927 -0.0011081450302 0.0639914678564 0.0123062653594 -0.0068479933771 -0.1009601997747 -0.1016338757151 -0.0047034265532 -0.1587510397366 0.0323053337714 -0.0324759104705 0.0146097286676 -0.0815425179501 -0.0952448300216 -0.0609452371863 0.0515605829637 -0.0051809747732 -0.0023611271380 0.0149928102879 0.0380773600836 -0.0616558649418 0.0401959626742 -0.0243532492787 0.0702368770215 -0.0503148340027 0.0338610555798 0.0122695265914 -0.0900372544303 -0.0424690332221 -0.1217708083954 -0.0128378737152 0.0046910299116 -0.0119088992831 -0.1046213423344 -0.0951945218741 -0.1751901320345 -0.0839202918067 -0.0297141226043 -0.0761004956730 -0.0877807889097 -0.1155521259130 -0.1017397043659 0.0284833470395 0.0398225887584 -0.0531722882599 0.1137125200501 0.0815939842096 0.0069228722061 -0.0352063516321 -0.0643486947562 -0.0951170044497 0.0480478449978 0.0796451105935 -0.0138854917845 0.0482466685256 -0.0977235256896 -0.1070578657191 -0.0505911986004 -0.0353284441100 -0.0568126081368 -0.0367463829897 0.0418315422229 0.0492315428823 -0.0549647266875 0.0606274419950 -0.0582048448805 -0.0473024600956 0.0131965392252 -0.0288444135125 0.0208673380476 -0.0728887530111 0.0028741013096 -0.0367162945708 0.1414447732499 -0.0057054088552 -0.0792529520968 0.0317027965674 -0.0360624570929 -0.0493946530472 -0.0369941033923 -0.0516791290291 0.0225742923832 0.0208188541371 -0.1259259460277 -0.0882632848047 -0.0759034849915 0.0351356124578 0.0384053344866 0.0016738135410 0.0406867317877 0.0166527714098 0.0303431563584 -0.0168844978940 -0.1419713624689 -0.1526227321675 0.0617451179827 0.0120742440567 -0.0045532124186 -0.0665433929082 -0.0603432112452 -0.0196702204570 0.0938473806644 0.0910762723661 -0.0256413054763 -0.0797740523565 -0.0511094136894 -0.0365944252931 -0.0859424698185 0.0123312031622 -0.0794402676920 0.0220833864098 -0.0078117139099 -0.0585376617922 -0.0205200688881 -0.0791360253899 0.0483985644671 0.0571215654688 0.0934888824844 -0.0690411223306 -0.0625581374922 -0.1161407699338 -0.0880768926984 -0.0237419965362 -0.0229018134639 -0.0018344369642 -0.0553962032246 -0.0257648607527 -0.0152346391632 0.1145598290774 0.0581152231232 -0.0157719129613 -0.0281723195662 0.0300969273968 -0.0860665738533 -0.0323435041362 -0.0434226967841 -0.0772616589463 -0.0341129563870 -0.0783004524991 0.0134563642874 -0.0201348607166 -0.0209524942762 0.0507173540398 0.0563917166862 0.1278404222380 0.0959361880832 0.0119681360833 0.0114183364223 -0.0521294060921 0.0237061665273 -0.0387720636142 0.1426589833563 0.0581361663214 0.0938775937414 -0.0437213815458 -0.0011387331824 0.0844523161864 0.1410204740439 0.0898556724199 0.1043272874940 -0.0590451637051 -0.0897565545260 0.0767364880015 -0.0163198819338 0.0413229294092 0.0284558649448 -0.0496587046910 -0.0656626093150 0.0441480454306 -0.0193105928764 -0.0197266625262 0.0512523149582 -0.0029835089143 0.0121375072353 -0.0683289628658 -0.1691478116147 -0.1881686318584 -0.1830717085375 0.0475275215369 0.0091005093563 0.0204680070079 0.1328269897458 -0.0759816672929 -0.0393282248054 0.1134903999471 0.0753952389432 0.1850201468616 0.0312534926791 -0.0261225849875 -0.0420430768522 -0.0433016400296 0.0272005861120 0.0488108632784 -0.0326709942755 -0.0516433899171 -0.0442238860425 0.0660569750015 0.0442691608133 -0.0099567444436 0.0260205266126 0.0715704534711 0.1850552213338 0.1103263117758 -0.1389821988544 -0.0570981179039 -0.1179955059431 0.0392986165239 -0.0042702173970 0.0296945837236 -0.0832852140347 0.0088301294805 0.0272264537102 0.0084988716669 0.1414777419538 0.1205308053383 -0.0164463898531 0.0148407923904 0.0378596399419 0.0826731782755 0.0931161025562 -0.0897461451939 -0.0872106056177 -0.0724822718831 0.0768114551755 0.1115021079684 0.1256990308864 0.0079887644364 0.1740212878377 0.1678817220763 0.1732787882713 0.0928088373280 -0.0312769770895 -0.2085780335413 -0.1568104553957 -0.1369567594982 -0.0300899937286 0.0441630060584 -0.1117368917805 0.0376094026910 -0.0356518339805 0.0581677140604 -0.0000069896166 0.0618121924524 -0.0272874847468 0.0456012706709 0.0323728274916 -0.0461649570313 -0.0952058498992 -0.0662187264890 -0.0338667441328 -0.0674031994826 0.0513602366555 0.1973701019105 0.0809833353692 0.0990744732650 0.1284169301461 -0.0204726221886 0.1679636187521 0.1498127712388 0.0579104347013 -0.1076543395042 -0.1810577848708 -0.1544288092496 -0.0419131277253 -0.0550691318683 -0.0396624827559 0.0793538467923 0.1148609064192 0.1707652987394 0.1847150550277 0.1168804997446 0.0498513632043 0.0230308977056 -0.0501882129149 0.0611125286404 -0.0422577563584 0.0568298730155 0.0976217497699 0.0187034809302 -0.0198498368136 0.1386323347742 0.1642707045919 0.1017923690186 -0.0222178828867 0.1124209873008 0.0895983619136 0.0444380481807 -0.1159410377673 -0.2064081993550 -0.0893790337830 -0.0923646579347 -0.1578139303681 0.0112983707101 -0.0969546105591 0.0882407304299 0.1152710191014 0.0872694555317 0.1539778165360 0.0643436775964 0.0055598852648 0.0828223153769 -0.0083302885393 -0.0985115161503 0.0526668785223 0.0888415208505 -0.0897439420369 -0.0562967188761 0.1735643325965 0.1509236296862 0.0034193924917 0.1038150391333 0.0447120188939 0.0647192550097 0.2122809212860 0.1831485870404 -0.1456530408784 -0.1482100857816 -0.1870348673302 -0.0420081155382 0.0352715942665 0.0888407357962 -0.0532860689579 0.0152134913236 0.0944524466043 -0.0084130107747 0.1108959784058 -0.0152542399129 -0.0745189972928 -0.0203150047556 -0.0109355682934 -0.0785597375249 -0.0153667117092 0.0580073193197 -0.0514685905832 0.0416851075494 0.0752256094040 0.0722412069092 0.0183300743431 0.0378624854506 0.1660837721718 0.1852331599021 0.0348609876034 0.0522271093054 -0.0427064443987 -0.2215318096863 -0.0939130686548 -0.1565953430462 0.0081640537760 -0.0294483118496 -0.0038586892241 -0.0845578957408 -0.0878158994342 0.1166776700797 0.0377884176669 -0.0379848943886 -0.1231342691254 -0.0336399686841 -0.0292009986889 -0.0503169875872 0.0969397750158 -0.0066216986553 0.0453609965074 -0.1289361874750 0.0088147798282 0.0426267050145 -0.0571694297454 0.0556965186490 0.0913361923571 0.0752224194784 0.1081771353714 -0.1296456113587 -0.0428383793773 -0.1080004884379 -0.0192806565109 0.0135496416121 0.0467502089228 0.0145459106003 0.0826262514549 0.0040119544214 -0.0496662893708 -0.0472525015510 -0.0558623340590 -0.0466350391454 -0.0739791917278 -0.0855959491932 0.0121613279467 0.0544951129794 -0.0630318375524 0.0058119767628 0.0070782342495 -0.0777909680310 -0.0704125792056 0.0677132756071 -0.0242053961803 0.1214029520101 0.1049688159577 0.0582726381290 0.0118463762691 -0.0576927983498 0.0592059020525 -0.1313272492844 -0.1037284015470 0.0751959501167 -0.0310371459850 -0.0801614669754 -0.0742467567830 0.0400628724595 0.0297650597282 -0.1240201253508 -0.0513370718445 -0.0886111804719 -0.1156677467617 0.0303174055030 -0.0589143693558 -0.0006835894333 0.0265117093053 0.0911517933920 -0.1075140712481 -0.0554456430385 -0.1335361625994 0.0084064397134 0.0642198970361 0.0856185693290 0.0546888246549 0.0922211716107 0.1050090307856 0.1072634903654 0.0678932080653 -0.0429120253110 -0.1038603324066 0.0209459697034 -0.1176673212551 -0.0168068290994 -0.0144770567973 -0.0899086715599 -0.1357527456562 -0.0019067198634 -0.0551411544440 -0.0425535159495 0.0266055133129 -0.0825511275150 0.0255646008421 0.0843918794471 0.0208994045272 0.0091622963321 0.0094758161907 -0.0230233996173 -0.0115707783822 0.0340264017313 0.0409040990910 -0.0946103712836 -0.0024668421908 0.0223699508056 0.0789868909572 0.1153064656086 0.0929052993561 0.0224258678148 0.0013480076155 -0.1747765944496 -0.1913862126645 -0.0097565852304 -0.1501812687853 -0.1549202961813 -0.0250187805107 -0.0320130077791 -0.1027698546935 -0.1072194027862 0.0620193924947 0.0625226023315 -0.0325359596439 -0.0145867632441 -0.0635768898154 0.0888252884461 -0.0097579032039 -0.0881602465306 -0.0053335429419 -0.1559492937779 -0.0235704733601 -0.1401367442182 -0.0549779014835 0.0509311456380 0.1073157264135 0.2159832468572 -0.0451343587204 -0.0426344550911 -0.0200517333969 -0.1407239226091 0.0013503657648 -0.0224396488076 -0.0449629868850 0.0063818382382 -0.1503136587602 -0.0487176482188 -0.0980622460841 0.0028030088549 -0.0545369172209 0.0040512582420 0.0848038134035 0.0986023316469 -0.0938995348947 -0.0135585082752 -0.0579159053931 -0.0771260265042 -0.1006805632282 -0.0326034021546 -0.1045538788939 -0.0221745293172 0.0562257927223 -0.0058179168826 0.0240490499027 0.0876302857241 0.0528259911973 0.0192616915930 -0.0210209396426 -0.1356795809893 0.0249464250410 -0.0441222889769 -0.1553814011757 0.0497110112642 0.0211034547761 0.0779482081301 -0.0312204439782 -0.0608537907835 -0.0170040661653 0.0440913488672 -0.0172860161134 -0.0876812668512 -0.0981867618373 0.0311644461878 -0.0506953093636 -0.1146787956335 -0.1279189169102 -0.0637338464148 -0.0986616736132 -0.0771071076482 0.0071562660140 -0.0584551558438 0.0068087132198 0.1773115752422 0.0724136339403 -0.0007160642419 0.1303676613839 -0.0281129136660 -0.1079545320831 -0.0320345867310 -0.1222276633295 -0.1054586984672 -0.0800805328270 0.0649011684864 0.0338271015162 0.0212661475235 -0.0702733696482 0.0491804104234 -0.0119634049835 0.0892838448216 -0.0765128590303 0.0502482733466 0.0087112748961 0.0389793079471 -0.0689621210942 -0.0168805314400 -0.0848551855816 -0.0560241680372 -0.0235838674957 0.0974807405510 0.1150681001830 0.0588449306777 0.0649080177685 0.1599985975740 0.1325850169577 0.0228090659855 -0.0618147195081 -0.0422486813140 -0.0732285196417 -0.1026501228996 -0.0942233667435 0.0030150360344 -0.0107249167379 -0.0269351891823 0.0838402301833 0.0626867070449 -0.0836462558612 -0.0408571172119 0.0641637532668 -0.0823135854685 -0.0961283213952 0.0357796024767 -0.0526745078009 -0.1211957574326 -0.0126399334613 -0.0942039642207 -0.0560091528097 0.0290653115741 0.1062792343978 0.1535801393615 -0.0097371959293 0.1232869263008 0.0773945225239 0.1068238130693 -0.1239381462903 -0.0362506845325 -0.0240022059230 -0.0040171252386 -0.0739767464101 -0.0737075163307 0.0356807955945 -0.0048284170947 -0.0546532516361 0.0073126812692 -0.0341533538771 0.0203162386810 -0.0855515001943 0.0077330837586 -0.0215193061006 0.0395066071600 -0.0267120049731 -0.0096343502757 -0.1104535908949 -0.0392149782535 0.0261931856205 0.0325042608373 -0.0430301792027 0.0225176247001 -0.0089308734351 -0.0543795093212 -0.0021843386282 0.0554618414443 -0.0576388225125 0.0617623863085 -0.0041995390405 0.0502747330734 0.0044000590771 0.0857804998357 -0.0224389807899 0.0863645926612 0.0141104570533 -0.0631511433179 0.0217668435107 -0.0472973550191 -0.0569747955236 0.0119203776784 -0.0894889742794 -0.0493135954225 -0.0255757736480 -0.0829127837004 0.0172950336409 -0.0115552210870 -0.0475847792436 -0.0824619516354 0.0030348590230 0.0760691260265 0.0352206729858 -0.1131802312274 -0.0332555563709 0.0679422508682 -0.0056856279478 -0.0306374219232 -0.0248224440424 -0.0542584573218 -0.0181744435586 0.0577290041527 -0.0303277845149 0.0586245883997 0.0997000311881 0.0367808242756 -0.0247657045606 -0.0142991202103 -0.0777973461250 0.0679182924299 0.0352374487052 0.0380385674484 -0.0739673079672 0.0557189295694 0.0117903922084 -0.0686819447666 -0.0445255809535 -0.0596173317297 -0.0164246230762 -0.0548239293945 0.0565717909234 -0.0965651265186 0.0283374447983 0.0261899164898 -0.0603520492833 0.0579005277333 -0.0863036680802 -0.0371071424803 0.0112913087490 0.0609869720247 0.0553288823402 -0.0420703535104 0.0656579370130 0.0654438237145 -0.0827213850918
-0.0249200922202 -0.0949730524908 0.0799252814194 -0.0616418837301 -0.0417609984056 -0.0926773805325 0.0842011194091 -0.0775974945151 -0.0003334702908 0.0193703481297 0.0374924295936 -0.0903559702570 0.0048964448639 0.0394511156330 -0.0346126900631 0.0471732896113 -0.0238992767072 0.0840949923290 0.0504617694541 -0.0705006450407 -0.0169984891963 0.0623718579303 0.0692325358209 0.0378309656017 -0.0370725750595 0.0074961205404 -0.0102875677794 0.0059003155228 -0.0181200699793 -0.0187487606484 -0.0403197517270 -0.0780633550692 -0.0865296842208 -0.0627965188670 -0.0237961889773 -0.0891898988327 -0.0769761765933 0.1013602922254 -0.0478361119833 -0.0880077964868 -0.0889496793607 0.0420497668291 0.0618939751500 -0.0585955136152 -0.0951652579304 0.0182741275317 0.0650834307468 0.0104188672915 0.0374208389604 -0.0807124116985 0.0845821303284 0.0826661604003 -0.0387709162520 0.0615883616445 -0.0064769114229 0.0331004182784 -0.0231779857772 -0.0107241850870 0.0484747341215 0.0030853846346 -0.0763450004452 0.0002039468461 0.0201488840612 -0.0907175598370 0.0720929245970 -0.0545498141785 0.1013015429275 0.0865170541002 -0.0186824245546 0.1337995217072 0.1173275654759 -0.0575225175764 -0.0303535790077 0.0609785625436 -0.0164150048672 -0.0256550445433 0.0133742741049 0.0175075396695 0.0334202606592 -0.0250691326253 -0.0056397544720 0.0177065385643 -0.0931934334767 0.0234731029570 -0.0228935330497 -0.0499258883987 -0.0077273660976 -0.0439921540629 -0.0452139042678 0.0491552336436 0.0574247873869 -0.0151306124486 0.0238539359637 0.0238523444267 0.0646493506688 0.0831968136803 -0.0250108721086 0.0149253498799 0.0884658320696 0.1376468039839 0.1056181555850 0.1411577767309 0.1468626441965 0.0189091150974 0.0942397285282 0.0148043989597 0.0408548665407 0.0441195438671 -0.0591195163621 -0.0424069973120 -0.0629040482692 0.0794141904512 0.0985679229503 -0.0911323461465 0.0840266705231 -0.0699458126834 0.0487311270536 0.1132444854412 -0.0507172180391 -0.0668051790059 -0.0088724237188 0.0309845746485 0.1381888182034 0.0821543425253 0.1279237631817 0.0860805577647 -0.0187817436996 -0.0029611610830 0.1609010955960 0.1126332219969 0.1407784931864 0.1277983203284 0.0358474851813 0.0865096251261 0.0436214880486 -0.0404638169839 -0.0738401929254 0.0648663181682 0.0736891658329 0.0972019545190 0.0727865808577 0.0158804048962 -0.0150393799385 0.0670505279672 -0.0664630958911 0.0373977236562 0.0997366392124 -0.0030671919776 0.0781411530416 0.0913970259064 0.0502739657234 -0.0986826887585 0.0507999975133 0.0262398804114 -0.0263368686065 0.0908690509589 0.0743525489948 0.0784847529455 0.0218544887400 0.1478093522590 0.1427721499531 0.0369016836717 0.0942422273272 0.0916589384329 0.1064987028271 -0.0573794952599 -0.0709734650072 0.0915129997876 0.0224264563326 0.0153162219972 -0.0390805669814 0.0459791955126 -0.0600476538461 0.0783687742366 -0.0250842204114 0.0093753904210 0.0344850950015 0.0956085350473 -0.1072282154555 -0.1024520264127 0.0513347486651 -0.0112760930738 -0.0166396816623 0.0088283535335 -0.0654637294999 -0.0729868352801 0.0212872179015 0.0231996183490 0.1216778963798 -0.0838375096843 -0.0987759226593 0.0542179246942 0.1017395226048 -0.0175164317374 -0.0791072239367 -0.0316830257813 0.0033117685615 -0.0869754525717 0.0157911906226 0.0801329987906 0.1166363244010 0.0794561721710 0.0808862368905 0.0088777982997 -0.0723631382160 -0.0985944704594 -0.0282212973952 -0.0540980917427 -0.0843691997078 -0.1546526254823 0.0573762152784 -0.0489955359281 -0.0626727593013 -0.0176557745375 -0.0765063472828 -0.1246595644521 0.0186697122661 -0.0740704912708 -0.0221434178107 -0.0362829148407 -0.0975747632153 -0.0027678481233 -0.0776323702469 0.0357814174756 -0.0470674158668 0.0476513613718 0.0207051276838 -0.0822464443121 -0.0313068896524 0.0747766123644 -0.0451707641185 0.0751116205765 0.0648686865815 0.0392042500926 -0.1491791584643 0.0359051505657 -0.0092173601644 0.0408293160583 -0.0096500844647 -0.1804740628429 -0.2085841282301 -0.1878438217591 -0.1267662468153 -0.0364271619753 -0.0473041131580 -0.0610840388760 -0.0970757646421 -0.2041197088773 -0.0496646491222 0.0160403025414 0.0964547510991 0.0136918231496 -0.0991814679385 0.0106677004921 -0.0836552961996 0.0469933137085 -0.0501617080237 -0.0868341928302 -0.1000261403575 0.0670816386527 -0.0148826746220 0.0552077984124 -0.0309666263130 -0.0383094035737 -0.0064612922512 -0.0466197808862 -0.0773987032931 0.0383814303581 -0.1610135627807 -0.1816824443998 -0.1574864770347 -0.0828688235056 -0.0361831039437 -0.0107325637803 -0.1526834075090 -0.0079488737909 -0.1294193790421 0.0783025974745 0.0417024641116 -0.0668286078150 -0.0713604617442 -0.0083168966510 -0.0920845315871 0.0839975193956 0.0206404606541 -0.0324751608614 -0.0498168191962 -0.0441228591780 -0.0633396508974 -0.1519142619417 0.0115945366774 -0.1425235827044 -0.1088673945556 -0.0969059912257 0.1375225316595 0.0885343028028 0.0521281267593 -0.0577268607187 -0.1236627031940 -0.0670315323428 -0.0799213808971 -0.0527673452293 -0.1281732334542 -0.1072453138596 0.0193411487176 0.0497940915324 -0.0111109123673 0.0758803222949 0.0714470698945 -0.0736358114061 -0.0795658365109 -0.0579682319087 -0.0123206032849 0.0453844412168 -0.0035754589677 -0.1297336373243 -0.0016107609573 -0.1241109924827 0.0225522553701 -0.0505607090734 0.0262025679606 0.1080284738902 0.1162047726879 0.2083474239967 0.0338620040569 -0.0384515750703 0.0512121668520 0.1016480444428 -0.1027702792491 -0.1004231461605 -0.1439693688244 -0.0881956622764 -0.0815284368250 0.0620793519475 0.0957347712026 -0.0196484542559 0.0168172253843 0.0634219493642 0.0945952092379 -0.1084640316537 0.0709254039755 0.0104118818438 -0.1454004853464 -0.0922751632241 -0.0368585745989 -0.0040545933314 -0.0757662581875 -0.0240056534501 0.0180813240457 0.0308082244549 0.1705428486058 0.1400699094774 0.0536221901590 0.0278985658741 0.0759476696051 -0.0116263216955 -0.0253542891721 -0.0625025150559 -0.1526311900654 0.0441493129256 0.0475961499215 0.0312128418535 0.0630540374721 0.0352160141388 0.0629782357018 -0.0376708796629 0.0727429100713 -0.0723411923950 0.0237009444947 -0.0386891327559 -0.1111067884835 -0.1229124732366 -0.0068426750432 0.0232901652756 -0.1222192961289 -0.1829598337339 -0.0495313386106 0.0798515988840 0.2205251181997 0.2256772138381 0.1748447993414 -0.0091928280164 -0.0822790681757 -0.0992134433031 0.0069996576146 -0.0180685645888 -0.0291497842608 -0.0636337251377 -0.0278402919797 -0.0739188414917 0.0418048450963 -0.0611108712507 -0.0011839957835 -0.0045583004841 0.0803541712649 -0.0393657980769 0.0487517547015 -0.1138045279980 -0.0160256881930 0.0208559423036 -0.0189019857002 -0.0384803211744 -0.1409557459735 -0.1418604675039 0.0532868521088 0.2020582896182 0.1161099766518 0.0728894600542 0.1907871141255 -0.0467825032210 -0.1627398983094 -0.1093778988630 -0.0059544580028 -0.0563605802318 -0.1010599550202 -0.0365605322919 -0.0876429043973 -0.0051000753808 -0.0986025180942 0.0004817761071 0.0748256288121 0.0434612145139 -0.0830676666014 -0.0281961631250 0.0652907883612 -0.0501372547252 0.0311904981890 -0.0923702590159 0.0583165250373 -0.0333758963392 -0.1092226791760 -0.0513082952422 -0.0019077594347 0.2314017178816 0.2726555245071 0.0573082958973 -0.0022372976239 -0.1184660956517 -0.0879533882571 -0.0757118371090 0.0391392820798 -0.0038995257443 0.0994159744143 -0.0520514942292 -0.0524737047043 -0.0704176308304 -0.0994293972216 -0.0186221351209 -0.0098067353215 0.0541859908281 0.0396138602246 0.0973907391729 0.0478877262048 -0.0614646443533 0.0202129247491 -0.0637245546415 -0.1443007321270 -0.1015863555065 -0.0961453806212 0.0766810577084 -0.0126003680799 0.1248396610592 0.1227382312930 -0.0624382149978 -0.0999830217305 -0.0913985300093 -0.0578160027707 -0.0088238341445 0.0819142922893 -0.0477731241102 0.0189547747276 -0.0002736704618 0.0764536358296 -0.0350681435790 -0.0440234580420 0.0702364435685 0.0913539931764 -0.0249172819079 0.0860136115966 0.0611436051475 -0.0618123747567 0.0209398257499 -0.0812366293900 0.0554689132258 -0.0578159875536 -0.1481113211991 -0.0015614275006 -0.0423507024322 0.0148504893309 -0.0123635033869 -0.0308378945596 -0.1028801988764 -0.0075735307783 -0.0787412792150 -0.0428479644322 -0.0143256167133 -0.0749173470591 -0.0635826318166 0.0672982649939 -0.0707327690762 -0.0921538587504 -0.0224778403298 -0.0127414809035 0.0157339562882 -0.0794001505414 0.0577334806931 0.0869651361120 0.0076470106086 -0.0089109188325 0.0150289848751 0.0024885412971 -0.1034403932661 -0.0985015200485 0.0442817281777 0.0814831452327 0.0244343049426 -0.0362459867997 0.0714859874232 -0.0291799394817 -0.0295434728071 0.1256938544730 0.1259668040861 0.1477518062907 0.1489756423206 -0.0385725757855 0.0271361723853 0.1291301664581 -0.0471409408222 0.0831780699205 -0.0393059541805 0.0716727671693 -0.0699860478127 -0.0647717442577 0.0618355552370 0.0797785970847 0.0791218966202 0.0629720360373 -0.0852528893839 0.0299075292396 0.0652877072755 0.1018209327946 0.0501546634667 -0.0099902758389 0.0723344957407 0.0353159497687 -0.0629919246259 0.0392525432925 0.0017414153009 0.2016486773831 0.1194845382569 0.0464107072157 0.1360415241223 0.0990448788794 0.1212521977307 -0.0501546872505 -0.0110243887000 -0.0651491439892 -0.0740803655793 0.0323773718019 0.0945288138025 0.0811832438997 -0.0465995179282 -0.0859240342626 -0.0024012732450 0.1398373923759 -0.0283166781412 -0.0611295954591 0.0344235662364 0.0705364249352 0.0492457640784 -0.0142669750470 -0.0289538604384 -0.0372510895592 0.0767224961413 0.0773991887119 0.1234029905441 0.1449301393121 0.2211732616649 0.0830693313484 0.1774166701138 0.2038217395137 0.1382871007353 0.0773140120333 -0.0761869476341 -0.0728219440669 0.0416006958300 0.0569709438748 -0.0855117091500 0.0767558349895 0.0707461551575 0.0501699940492 0.0490017633152 0.0288099606891 0.1183934109117 -0.0193976879030 -0.0189001870582 -0.0332325468242 0.0376420367604 0.0645925742841 0.0839759546402 0.0526062433600 0.0625800313364 -0.0169537610530 0.1556646697782 0.0075267889463 0.0879808785654 0.2135626108141 0.1242639915732 0.0170936783424 -0.0098117975247 0.0711722801850 0.0442021611168 -0.0272786044152 -0.0219874110224 0.0543944547813 -0.0551305933641 -0.0126843706762 -0.0025730652590 0.0423103650265 -0.0635642188337 0.1218955561648 0.0998281269581 0.0362050259020 0.0607051994065 -0.0461127026570 0.0701244956015 0.0770918633768 -0.0906434015749 -0.0550271982985 -0.0553103741067 0.0139350819397 0.0652432210178 0.0217476895639 0.1208599598200 0.0032811160371 0.0981062468272 0.0549526608164 -0.0140064689054 -0.0956194521937 0.0344083604509 0.0700694451620 0.0627465551659 0.0728783597097 -0.0705003345766 0.0286095410371 0.0197156002738 -0.0582976361991 -0.0764899651792 0.0824181909142 0.0427154723218 0.0359753659797 -0.0721869487835 0.0379699292541 -0.1057146360362 -0.1177952021246 -0.0395915747747 -0.1561411870686 -0.0301715325472 -0.0285363160401 -0.0572942795830 0.0741867921876 -0.0275919336563 0.0267337936208 0.0821066905932 -0.0044197404313 0.0102247378825 0.0280523032006 -0.0016843002203 0.0225567079230 -0.0484414950694 -0.0598468073888 -0.0997270722247 -0.0622279893490 -0.0580929839242 0.0698040203791 -0.0467531585124 -0.0725895728510 -0.0084103927780 0.1117547465831 0.1217473289964 0.0096139473824 -0.0586693098652 0.0234077768793 0.0879663521862 -0.0615097751647 -0.1495005360653 0.0064128746583 -0.1387213651944 -0.0586008454341 -0.0611297326869 -0.0513873718702 -0.0149199004079 0.0517333000043 -0.0222361458089 0.0269388546769 0.0687115428520 -0.0507948465456 0.0730026459106 0.0927324048733 -0.0535453111068 -0.0625927661909 0.0960339228770 -0.0463463655293 0.0520741607396 0.0202327821556 -0.0921096570104 -0.0096035876646 0.0959303816455 0.0981495487512 0.0004442388093 0.1174219856586 -0.0131960869665 0.0480813485506 0.0429202980805 0.0420946771221 -0.0267855118044 -0.0229349567191 0.0987511208322 0.0172514915519 -0.0145092857313 0.0188528919216 -0.0816205722642 0.0856660064140 0.0877933566038 0.0150774338845 0.0208397770210 0.0537560843845 0.0678237729715 0.0901645994294 0.0181058359732 -0.0256616332014 0.0367605069019 0.0715664940287 -0.0691846998930 0.0726262988314 -0.0515541428987 -0.0185017253115 0.0052763378078 0.0485375853328 0.0563959998742 0.0460196532484 -0.0692953911000 -0.0009049195487 0.0489280703610 -0.0445773189774 0.0307218434014 0.0333425298620 0.0700845751909 0.0671343193235 0.0470270362899 0.0190845734115 -0.0809684876583 -0.0688346980362 0.0889108402727 -0.0553467807796 0.0472719399815 0.0096685638828 -0.0112132115347 -0.0615440316498 -0.0375240276869 0.0116786216101 -0.0991940314288 0.0961400488229 -0.0234910357621 -0.0571820826670 0.0993205261747 -0.0718139122669 0.0635999777300 -0.0715801143945 0.0941945648108 0.0118308527346 -0.0877723813894 -0.0768500265696 0.0668817659652 -0.0615978740393 0.0792475813883 -0.0258760689018 0.0650376229953 -0.0540320579982 -0.0540857217423 -0.0714885168004 0.0583089875384 -0.0040141583495 0.0985048033885
0.0527242712564 0.0025264601369 -0.0117730351043 0.0049357430542 -0.0309762418531 0.0133630648946 -0.0090774120692 0.0605342893122 0.0930544134200 -0.0246671628696 0.0026870016243 -0.0358216383570 -0.0474164933144 0.0305589109003 0.0984016483327 0.0824604978271 0.0454676608337 0.0919490414618 0.0609972355024 0.0200643383752 -0.0878888238453 -0.0193341372564 -0.0096457010533 0.0417230165290 0.0287902597163 0.0788835516323 0.0341011492562 0.0794824862343 0.0286254213981 -0.0224972349766 -0.0983292470461 -0.0520921441860 -0.0361505663168 -0.0400525462453 -0.0889733007473 0.0961490550476 -0.0892445017577 0.0449255154443 -0.0273829464412 -0.0259759497967 -0.0776528893338 0.0207186237966 -0.0482392494887 -0.0471159688947 0.0985313757729 -0.0051311456534 -0.0461229324533 -0.0800044224761 -0.0290994914005 0.0300634969944 -0.0326675964506 0.0709158804172 -0.0138810176834 -0.0040245413992 -0.0420960928409 -0.0659234306673 0.0802111109710 -0.0672509580136 -0.0844165614589 -0.0627411495416 0.0889133475642 0.0179735261801 -0.0188822291487 0.0367724622846 0.0358941389254 0.0836946199223 0.0388138728339 0.0958896631724 -0.0279171991094 -0.0378035950323 0.0914884741656 0.0790053218354 -0.0581696408988 0.0890389005875 -0.0292977289444 0.0457691726313 0.0206096027537 -0.0907227838104 -0.0642616354530 -0.0694883691070 -0.0360107331646 -0.0354555996111 0.0680519223973 0.0902587236752 0.0115435865358 -0.0227810434659 0.0625308883543 0.0551803851223 -0.0056874019913 -0.0333483396021 -0.0059412535557 0.0788672741064 0.0561887992448 0.1184538196368 0.0309554681536 0.0983204350247 0.1408811210485 0.0194134862725 0.0928478635772 -0.0133560907387 0.0887013484402 0.0707231057102 0.1136024389415 0.0290481540142 0.0245332737258 -0.0363059295966 -0.0452241135958 0.0136744065753 0.0149697298308 0.0767284318795 0.0967136002242 -0.0701878633964 -0.0698842592997 -0.0788348909266 -0.0018053267423 -0.0155619172361 -0.0606794594081 -0.0430403239543 0.0866434385419 0.0076350253990 0.0705996809648 -0.0293270262415 0.1053383080840 0.0289165959004 0.0711797828322 0.0460081233457 0.0947501865125 0.0641250763426 -0.0279538575464 -0.0437258469371 0.0623335936238 -0.0121373809775 -0.0445643300142 -0.0999138619328 0.0812004842082 0.0069595342263 -0.0740326216115 0.1000995848392 0.0132822285481 -0.0553874840904 0.0372741134082 0.0878882838378 0.0266656124918 0.0700452025538 -0.0809173626534 -0.0094292627688 0.0266587681445 0.0742544226935 0.1017281470964 0.0889380618937 0.1449302909689 0.0302890081591 0.0248414484140 0.0799963536402 -0.0799522265931 0.0324402561069 0.0044492367019 0.0586927967268 0.0527593041650 -0.0306759743665 -0.0544904395777 -0.0395722077548 -0.0197542927325 0.0386009194916 -0.0377949733178 0.0637169964247 0.0805723922542 0.0372073204572 -0.0577328420253 0.0338065100574 0.0448797956829 0.0491633491288 0.0356222045437 -0.0617506169853 0.0356868990180 0.1266375074312 -0.0354243110653 0.1200512641772 0.0533708423072 -0.0567876300098 -0.0728699215019 0.0271378746279 -0.0857137121172 -0.0655970413207 0.0682180726377 -0.0814689344999 -0.0873594963224 0.0667335114758 -0.0893460410169 -0.0742623522642 -0.0129197315441 -0.0252090165427 0.0607515469122 0.1183305143795 0.0810881726463 0.0555586213382 0.0170764502125 -0.0217699171403 0.0375435417136 -0.0544459004482 -0.0097062098844 -0.0125570898187 -0.0638028611539 -0.0717975029872 0.0520990763478 -0.0373953470324 0.0244416036981 0.0213786557609 -0.0411872245985 0.0097907526755 0.0633721520420 0.0516929218175 0.0185049230100 0.0054650149859 -0.0976478839339 -0.0654565358566 0.0047269243363 -0.1086696016364 -0.0335628835966 -0.0340210153708 0.0148461713435 0.0342697512781 0.0005555668762 0.0880128402247 -0.0572866163741 -0.0102516154414 -0.0246740865300 0.0198437610595 0.0494719069005 0.0160395462559 0.0681671420508 -0.0565393205187 0.0382000512538 0.0993778898173 -0.0279009503061 0.1023367023934 -0.0659955405840 -0.1107655237995 -0.0325955448193 -0.0264819882061 -0.0367911700402 -0.0307340167100 -0.0434762725418 -0.0102502414862 0.0515395742801 0.0502893154177 0.0729479642226 0.0160552252235 0.1523271181947 -0.0483211117322 0.0845801595457 0.0329206543639 -0.0467277031910 -0.0891628533402 -0.0976114589344 -0.0637579916763 0.0568188861869 -0.0710092642277 -0.0994752521879 0.1100674363919 -0.0371531762274 0.0295286268354 0.1443128242729 0.0089528095489 0.0668279087344 -0.1203728340715 -0.0630005774342 -0.1257675740554 -0.0814896158534 -0.1244332267811 -0.1438948357556 -0.1161695408205 -0.0259385374934 0.0423227346822 -0.0372243440865 0.0113574867083 0.0684898895117 -0.0079960306130 -0.0717320950795 0.0275436043787 -0.0380848936861 -0.0402034658623 -0.0352832144141 -0.0081949016774 -0.1050052884047 -0.0823097277157 -0.0088957867878 -0.0344290261532 0.0409486570279 0.0059874132634 -0.0036753933306 -0.0374531793330 -0.0048519019847 -0.0855341217541 -0.0783331879840 -0.0945461167156 -0.1643060256974 -0.0066022240581 -0.0790160534771 -0.0985531461106 -0.0913361940531 -0.1029870427129 -0.0965480491259 -0.0182404181140 0.0793171166469 0.0339451922233 0.1003916177910 -0.0574142175822 0.0348836293375 -0.0760131944227 -0.0701778801777 -0.1235148465833 -0.0250300068138 -0.0390946118994 -0.0871589717815 0.0528360478057 -0.0619308397459 0.0269091014486 -0.0854340769299 0.0057058636181 0.0379125785707 0.0667353830094 -0.1245848786952 -0.1267079331891 0.0024430189164 -0.0392035049194 -0.1054674569827 0.0377030054653 -0.0665538674111 -0.0501846119444 -0.0756521203636 -0.0211233326370 -0.0084499751222 0.0511950492581 0.0061065369409 0.0489364627715 -0.0431169730936 0.0474812219146 -0.0360263516862 -0.0680070691215 -0.1076601212552 -0.0571792655163 0.0572982241644 -0.0497289748865 -0.1662650840655 -0.1023362522079 0.0326520608754 0.0027536403295 0.0279401875748 -0.0418159677277 0.0451491063268 -0.1804915167455 -0.0390102901587 -0.0394816309451 0.0154134277320 -0.0643693352584 -0.1787115371276 -0.0959078691673 -0.0079011117888 -0.0169418712249 0.0640896210799 -0.0773426072177 -0.0935577708600 0.0659331313924 0.0579473446521 0.0606169952890 0.0543793613371 0.0507972774675 0.0322698471193 -0.0741317734946 -0.0181719112387 -0.0356779614209 -0.0489731932474 -0.0531115767908 -0.0797289410183 0.1616869775180 0.1476626887657 0.0231023436334 0.0712412384895 -0.0593874134294 0.0199249096052 -0.0221871064776 -0.0491763529982 -0.0912652181655 -0.0913263533667 -0.0536593734183 -0.0019029963241 -0.0786504005924 0.0803495538475 -0.0037103957455 0.0995644191933 -0.0567396372769 -0.0249262864533 -0.0553850628960 -0.0641495051643 -0.0679081334523 -0.1088372965016 -0.0316666225867 -0.0199213431253 -0.0673252089531 -0.0976194747724 0.0120763297243 0.0888831439638 -0.0037491614312 0.1047863214649 0.1473786826483 -0.0578705336616 -0.0054019865528 -0.0023496174014 -0.0550336457829 0.0240818519118 -0.0842506794356 -0.0890567637463 0.0084814365962 -0.0760393428476 0.0016747007226 -0.0299251873233 0.0964961590700 0.0769563035665 -0.0292214874655 0.0908452432745 0.0393037597920 -0.0333926663204 0.0422213115285 -0.0297216592548 0.0280881811131 -0.0195720417640 -0.1100228473518 -0.0692076406426 -0.0192040665693 -0.0512081264851 0.0341924960221 0.1398586916943 0.0022721630728 0.0330454788291 0.0877288010438 -0.0177701576255 0.0147083854409 0.0030939507426 -0.0766021189446 -0.1120709271093 -0.0730045703091 0.0559118270529 0.0345155541224 -0.0063846501263 0.1008646112923 -0.0804981427832 -0.0792088913204 0.0165980601280 0.0735786798272 -0.0235725149880 0.1025109678343 0.0381122346714 -0.0095182306825 0.0746107465441 -0.0025391609003 -0.1444029065925 -0.0951013114366 -0.0822918954278 0.0052985368642 -0.0175177638228 -0.0245864188733 -0.0807680771061 0.0311877527695 -0.0615942041081 -0.0724496025424 -0.0148966610624 -0.0302536804084 -0.0939390091823 -0.0454336064114 -0.0145597809858 0.0188555141660 0.1227528137603 -0.0296119652486 0.0690420313052 0.0361335305389 -0.0959654553957 -0.0035955672777 -0.0218651457161 0.0435704046228 0.1106479446850 0.0737418532989 -0.0453618167571 0.0079955730337 -0.0581520619571 -0.0844033811804 -0.0895242150802 -0.0288164293380 -0.0306192641882 -0.0283601682515 -0.0746147520113 0.0394116207506 0.1256781537191 0.1004560300508 0.0370287992656 0.1209111633444 0.0453800175939 0.0932216310828 0.0657394338930 0.0740435340261 -0.0055901594843 0.0430488710892 0.0156822232480 0.0799036184293 0.0844482286322 0.0255419721121 -0.0594797247589 0.0298311380859 -0.0128821024960 0.1207855049337 0.1652970808205 0.0744387233478 0.0481012844317 0.0407310751460 -0.0064794701954 -0.0559807143662 -0.0630510745983 -0.0625077420590 -0.0869904206042 0.1078815842423 0.1740125655232 0.1461124850063 0.0569844308519 0.1451684383679 0.0683359521605 0.1299650523594 0.0461432278784 0.0786919796470 0.0229951523812 0.1188428255243 -0.0630345476174 0.0691980031047 0.0797553661616 -0.0966544260159 -0.0105791049547 0.0168897197986 0.0305448362627 0.1159264122553 0.0723347090688 0.0243610840710 0.1766005961335 0.1376038117814 0.0187968807493 0.1437087829608 0.0187266674814 -0.0198970713071 -0.0452512411696 0.0112260655477 0.0740134336651 0.1692282737502 0.1965279610935 0.1628842132516 0.0490782984438 0.1258749191075 0.1808137075207 0.0995019752140 0.0787083303437 -0.0730407066976 0.0684160922211 0.0058355889173 0.0106876440574 0.0864963857199 -0.0189114857570 0.0927860539487 0.0415429704801 0.1049768842206 0.0960728831699 0.1680188938087 0.1746637534918 0.0651854226948 0.1943916513840 0.1968558923264 0.0364006902088 0.0540744352025 -0.0342825578865 0.0416624267403 0.0998341202073 0.1387114471735 0.1913924457078 0.1015497176193 0.0699609051680 0.1527702607461 0.0126792260009 0.1540627465788 0.1007108683317 0.0274800921441 0.0593544640284 0.0458528560956 0.0320952593154 0.0048401395875 0.0776998127738 -0.0625014351525 0.0030400011921 -0.0080355643993 0.0311917710304 -0.0354075396091 -0.0024267197832 -0.0068161198594 0.1263676749871 0.0675964717656 0.1475660092671 0.0064696284613 0.0967337623701 0.0447238073388 0.0775593378909 0.1478846835738 0.1196839622598 0.0786777407716 0.0666670756737 0.0568203098903 0.1121915246030 -0.0062532495725 0.1008443929176 -0.0832364583380 0.0862611344418 -0.0792356890463 0.0365922795928 0.0309708533593 -0.0089311839077 0.0263609141031 0.0944472159752 0.0697941166765 0.0434777227150 -0.0455881614780 -0.0672008132177 -0.0205355897771 0.0065354989672 -0.0408052520253 0.1139334453489 0.1173057102660 0.0193908459335 0.0287237413689 -0.0066021406229 0.0357371062206 0.0126587519903 0.1968780607211 0.1130908138752 -0.0072787780289 0.0443052877579 0.1155466967613 0.0283447190133 -0.0366728181985 0.0502851390885 -0.0127308507471 -0.0572775483236 0.0863524373262 0.0672902836578 0.0374513454442 -0.0727735827481 -0.0723094269852 -0.0523181801541 -0.0526501418152 -0.0420195797738 0.0517259424125 -0.0591403912899 -0.0481958942606 -0.0665671590037 0.0492673903438 0.0191544804164 -0.1446753770324 0.0070348802186 0.0839091905683 0.0732344277327 0.0158269069697 0.1526181316180 0.0658429146242 0.0783819047245 0.1109860766151 0.0046337583484 0.0059346001503 0.0850931914223 -0.0553485391360 0.0372410515331 -0.0201222329664 0.0493311809855 -0.0601484181597 0.0599818435856 -0.0086486353275 -0.0334014591490 -0.0872788414959 -0.0380785615472 0.0483115389056 -0.0548135135575 0.0339430998544 -0.0019578846081 -0.0783591816732 -0.0363167087866 -0.0380486117379 -0.0188099424456 -0.0564876372141 -0.0118463609944 0.0745174999088 0.0660821563329 0.0585383430231 0.0336478710347 0.0331992445470 0.0634817456038 -0.0594873780299 0.0705048003437 -0.0020475909378 -0.0788724518094 -0.0630011828997 0.0854345075610 -0.0657854549171 0.0285725351058 0.0655041590047 0.0663702656325 -0.0529189064756 -0.0667551089335 -0.0813921258187 0.0393263411966 0.0846920524854 0.0297281396132 0.0515242023430 0.0333895583727 -0.0828859994590 -0.0502373451471 -0.0756569745681 -0.0390594019546 0.0502842402041 -0.0407556153434 0.0676875359259 0.0372298395308 0.0091699973182 0.0476911459072 -0.0245825128565 0.0934985293976 0.0806588611012 -0.0968298854583 -0.0744413733195 -0.0310948029963 0.0700108265689 0.0725292205609 0.0556702370329 -0.0802802262736 -0.0754148964554 -0.0178413150450 -0.0821608716785 0.0048716349458 -0.0288392292353 0.0821358640513 0.0073112470408 0.0237020947790 -0.0481868503900 -0.0337714715284 0.0079232226229 -0.0889904045348 0.0491654606675 0.0205873595619 0.0731574987265 -0.0591187852907 0.0199379444065 -0.0696635678353 -0.0803522541362 0.0328916280264 0.0561641046400 0.0277771893417 -0.0390158703065 0.0217280124740 0.0169382243095 0.0925588808076 -0.0630245273291 -0.0789212337143 0.0646079539601 -0.0370118907397 0.0375102041203 0.0963891017704 0.0064596586811 -0.0744594016049 0.0620947894897 -0.0893891261361 -0.0015139138861 -0.0411638373416 -0.0252434294983 0.0557157575359 -0.0619894418832 -0.0857734098133 0.0809979330333 -0.0489556926535 0.0223744065126 -0.0268384011017 0.0941749862417 -0.0447884164698 -0.0346155299771
0.0316027133586 -0.0861479955016 0.0549469328396 0.0595445436541 -0.0552590169522 -0.0375038720855 0.0371461322501 0.0544741272900 0.0021381622812 0.0201242276134 0.0978956508582 0.0695740140570 0.0426818550171 0.0132268594696 -0.0830984743211 0.0899566738180 -0.0091010797830 -0.0186214672212 0.0719690642788 0.0248122155475 -0.0876021327314 -0.0068072915532 0.0973137970952 0.0150232842359 -0.0981777103617 -0.0359999478655 -0.0070445854776 0.0520716215034 -0.0994096366242 -0.0738755941048 -0.0956387773642 0.0253243011421 -0.0970967889977 -0.0502652596556 0.0382298709918 -0.0595892980642 -0.0094455367617 -0.0606544559485 0.0389726438877 -0.0261175501611 0.0813994355843 0.0741937407484 0.0265398735296 0.0469480327767 0.0389914570600 0.0904739910510 -0.0041700098440 -0.0802525906786 -0.0557279784288 0.0177438159165 -0.0009154360417 -0.0961450788883 -0.0695188951409 0.0966136720582 0.0818562892655 0.0990671957576 -0.0468876128984 -0.0808538334474 0.0159032504597 0.0441020826530 -0.0809607265471 0.0605089070223 0.0118989993262 0.0457338027874 -0.0691610791858 0.0313246626590 -0.0184468832944 0.0168343685224 0.0695550620299 -0.0252917806124 -0.0274243886197 0.0234095933737 -0.0178632418362 -0.0861406582858 -0.0162387420365 0.0697127231721 -0.0637162321809 -0.0095627067379 -0.0637625390465 0.0489441861654 0.0174569967389 -0.0731319795959 -0.0162363134568 0.0768164488767 -0.0478197931492 -0.0346992591649 0.0260258387644 0.0316280552957 -0.0607949666601 -0.0278055134866 0.0161312343843 0.0897222290983 -0.0069719423487 0.0576364303061 -0.0385809242813 0.0025584339573 -0.0205238881028 -0.0103150363779 -0.0454193647180 -0.0890723720976 0.0682826363379 -0.0390828596926 0.0456244609390 0.0442334224860 0.0618683654608 -0.0330331670078 0.0584542420349 0.0653473950198 0.0342046456135 -0.0007599136442 0.0999140286715 -0.0803017577718 -0.0967946100261 -0.0465898244818 -0.0242089140750 -0.0987691661026 -0.0103006572327 0.0451032927999 -0.0397940777766 0.0723622980534 -0.0673703955507 -0.0695542575295 0.0122424402877 -0.0239947124544 -0.0299288502829 -0.1061763205518 -0.0029822850447 -0.1517522541584 -0.1174721939738 -0.0347904895065 -0.0322291064313 0.0144205957206 -0.0735890868797 0.0834070765015 0.0273144320518 0.0935329487794 -0.0404802583698 -0.0584724515011 0.0061764538486 -0.0255135903004 -0.0014220167571 0.0498378183941 -0.0146216932926 0.0261800005332 0.0658884586446 0.0301901214804 -0.0170610872342 -0.1093569023595 -0.0117451606205 0.0260298692258 -0.0444653431951 -0.0988618679489 0.0027311431061 0.1001686985282 0.0215152329660 0.0943761056108 -0.0984022115219 0.0603337364740 0.0254549931630 -0.0725041621964 0.0110036434122 -0.0332245480358 0.0964368933428 0.0063609455210 -0.0114867543957 0.0005756434073 -0.0686774212120 -0.0016054731395 0.0549291622617 -0.0904454814705 0.0283170000534 0.0494454227052 -0.0835499902090 -0.0373157706358 0.0176664781542 -0.1043056167200 0.0484745167918 -0.0135490709051 0.0322123866525 0.0108405474400 0.0818164825417 0.1554132862852 -0.0281987836967 0.0406888536871 0.0552901603800 -0.0139243387909 0.0439519375679 0.0356051512170 -0.0382982846464 -0.0800193787052 0.0963423425874 0.0017232314532 0.0146180810652 0.0253538440136 -0.0853383950940 0.0158697954268 -0.0114008177965 -0.0427804120968 -0.0447074703999 -0.0145245915992 -0.0274519168863 -0.0390085853130 0.0119313849683 0.0112024846018 0.0655168888235 0.1153420162704 0.1003939756725 0.0304947845410 0.1464702711746 0.0906568272198 0.0457103909207 -0.0641633071658 -0.0229023840803 -0.0336702232322 -0.1009157813047 -0.1298690654730 -0.0021326213271 -0.0247097817937 0.0138717996834 0.0298395043030 -0.0772407459232 -0.0124545146327 0.0680396314404 0.0735214292329 -0.0624642930083 0.0772082775607 -0.0951067443063 0.0552787800180 0.0486068682681 0.0229555634667 -0.0186015352662 -0.1116618927972 0.0584825118986 -0.0162507374249 -0.0302666857615 0.0938065180443 -0.0185809532533 0.0021093490839 -0.0101777011917 -0.1411213247347 -0.0772049999189 -0.1346046527448 0.0053069454840 -0.0530867530518 -0.0201036106866 -0.0208120505612 -0.1640047692122 -0.0957616968820 -0.1259655530702 -0.0572042963994 -0.1128031791096 -0.0811896363038 -0.0658380453298 0.0064904064733 -0.0099396055853 -0.1032332491231 -0.1367238492752 -0.1336119536134 0.0012558471064 -0.0085623126265 -0.0317895464936 -0.0382353890052 0.0997186171900 0.0863993503880 0.0101531605142 -0.0274075445063 -0.2529601574963 -0.0838310203275 -0.1580770126010 -0.0785128556043 -0.0907654029730 -0.1450270704964 -0.0835182717053 -0.1465452561956 -0.0919611306917 -0.0430998267629 -0.1310709964240 -0.1128494700370 0.0094809960230 -0.0570686112106 -0.0048234405190 0.0691859383699 0.0668904941732 -0.0393486468019 -0.0176609516620 -0.0362327201236 -0.0862642819886 0.0695857309581 0.0619066372974 0.1205351870256 0.1282438179076 0.0809751488922 0.0545786395854 -0.2365809832599 -0.2960717796814 -0.1081912465844 -0.1408403327184 -0.0041468470020 -0.0164576492519 0.0254733055921 0.0138111166095 -0.1210376613159 -0.1103229235602 -0.0213563292070 0.0248551765425 0.0317610835604 -0.0463344389394 0.0264114931316 0.0843735808663 0.0298545612593 0.0925363163077 0.0006278028948 0.0412804308365 -0.0710183285814 0.0357562547584 0.1378673794343 0.2095331958638 0.0930063789425 0.1294836209704 0.0523082851827 -0.0480539822692 -0.2306535781951 -0.3227331256707 -0.1629143592881 0.1141386379157 0.0909213366217 -0.0063475941612 -0.0374585720790 0.0206390184261 0.0771475536619 0.0788148637348 -0.0276485735149 -0.0579840570378 -0.0665712061507 -0.0922903037156 -0.0690777824242 0.0557490028225 0.0983430798051 0.0373067829615 0.0523019693901 0.0243770719219 0.0721499071186 0.1161558773787 0.1089685878934 0.1098922546471 0.0906524302738 0.1230598509806 0.0555715295265 -0.0565388970413 -0.2654429779518 -0.3585055610843 -0.0576053152691 0.0584495990105 0.1998246288131 0.0141308471847 0.0808810620855 -0.0046758270430 0.1508186403300 0.0607353053310 0.0114830305830 0.0884883225837 -0.0857306106107 -0.0258679615345 -0.0670620280852 0.0161360226214 -0.0274297207047 0.0633681113582 -0.0331672061376 0.1164568197147 0.0744065558074 0.3087084338239 0.2261766881788 0.2048777320647 0.0900715972069 0.1714856461514 -0.0096521446140 -0.1700890661745 -0.3282575327260 -0.2623397822402 -0.0647261421841 0.0559623699698 -0.0062104574282 0.0046594245254 0.1193607614892 -0.0158068913597 0.1655187711710 0.1938876504563 0.0581067467765 0.0484913202233 -0.1158589128529 0.0499230105899 -0.0049830615387 -0.0416267507021 -0.0934059568116 -0.0759837344904 0.0522746288610 0.0161735242391 0.1846941871038 0.1150339540373 0.1089698197972 0.1436430458413 0.0626783662170 -0.0385878139889 -0.0102391227631 -0.1695017990048 -0.2694422936641 -0.2485721428858 -0.2010493291400 0.0157294209492 0.0403823424591 -0.0384029417847 -0.0146846220733 0.0697646909916 0.1460234907832 0.1834425516632 0.1471482192053 -0.0215101241382 -0.1050230060117 0.0735643892158 -0.0505551816085 0.0308695197373 -0.0405080499853 -0.0635315909973 0.0765824607769 0.0229926333223 0.0926392016339 0.1207202278979 0.1381152022194 0.1061916733136 0.1097042464540 0.1233117938724 0.0190725721943 -0.1798570561840 -0.2692593474050 -0.2947228515592 -0.2097001583379 -0.0104663216230 -0.0064418167814 0.0700539637047 0.0117547127842 0.0402212602167 0.0435074144675 0.1399838993023 -0.0225791619628 -0.0620629294297 -0.0569579619411 -0.1006551306448 0.0336263256017 -0.0533113693077 -0.0168313127119 -0.0094970238562 0.0199750410493 -0.0236812604323 0.0489599117619 0.1738018519570 0.1271931506268 0.2014577143443 0.0495015042894 0.0038416574489 -0.0728279513104 -0.1263542403645 -0.2787291805378 -0.2703873605578 -0.1902346442769 -0.1001771008094 0.1425185837937 0.0485420468245 0.0109835559541 0.0947381357552 0.1000128905982 -0.0321857870542 0.0198946134311 -0.1118813625490 -0.1049565869671 -0.0052007967484 0.0195897043051 -0.0997647740647 0.0180891352718 0.0161635396876 -0.0218733669808 -0.0278392379080 0.0471694095126 0.0203152836452 0.0993620406446 0.0450320892456 0.0447568362376 0.1089511037461 0.0582833774817 -0.1469351889865 -0.3093491284340 -0.2241341433839 0.0006141045826 -0.0964381135628 0.1198223247262 0.0607556269604 0.0388110516748 0.1603548690284 -0.0014428414382 -0.0373607049144 0.0383688468215 -0.1271927486572 -0.1028529927837 -0.0403510375749 -0.0916163295983 0.0173839503683 -0.0296369162219 0.0495557494317 -0.1332143080323 -0.1360086659531 0.0383409160490 -0.1006481244687 0.0505659798514 0.0974039130138 0.0849214119192 -0.0269875737323 -0.0534909959029 0.0002572899567 -0.2537927460561 -0.1178867018556 0.0083048927037 0.1042926798309 0.0834292340329 0.1722267660164 0.1534690958830 0.0748836770011 -0.0133425182491 -0.0902120959217 -0.1241451501663 -0.1602561300500 -0.1090738774813 -0.0118118721753 0.0696674160089 -0.0841604662405 0.0654872127294 -0.0918479852745 -0.1053448359475 -0.0658084856672 -0.1138363122856 -0.1102447966542 -0.1131202519983 -0.1177293159553 -0.1084704225885 -0.0894103910370 0.0624600030216 -0.1562494153396 -0.1777834990892 -0.0853946292382 -0.0571698055342 0.0988445867539 0.1245758592245 -0.0389398089175 0.0476740986717 0.1066851100325 -0.1071793370433 -0.1049139593025 -0.0216115267800 -0.1161036959684 -0.0477017557343 0.0236218457359 -0.0893681908114 0.0028110387797 0.0837165513446 0.0806001250549 0.0358273362166 0.0453672566377 -0.0061128388564 -0.1437519553096 -0.1333621912225 -0.1234232524560 -0.2051689626906 -0.0250137114799 -0.0275327954968 -0.1183204208534 -0.0507045081105 -0.0669683169132 -0.0026721641856 0.0700040477011 0.1494043440471 0.0711989992371 0.0723840138577 0.0665756695532 -0.1018096270720 -0.0284439133242 -0.1006362750361 0.0061382197350 0.0816451069195 0.0220033198228 -0.0075539025862 -0.0758593232770 -0.0585198314815 -0.0805441480654 0.0550513277801 0.0371041833592 -0.1089348551268 -0.0983527204759 -0.2113926195526 -0.0737094250882 -0.1617508397178 -0.1494517682756 -0.0003134168615 -0.0647242465541 0.0305115277597 -0.0261572893209 0.1615657349571 0.1276892503071 0.1272878670306 -0.0272930997818 0.0054436610069 0.0227705160123 -0.1102449472273 -0.0714847726679 0.0004554443500 -0.0756679576875 -0.0876906275830 -0.0304420641923 -0.0431991467170 0.0182617921809 0.0632829733761 -0.0871972436535 -0.0028813930500 -0.0388654278485 -0.0626090039669 -0.1530222016486 -0.0126633135171 -0.0887382891144 -0.0182517036100 -0.1234699027579 0.0467941994361 0.0585798137582 0.0765565727501 0.1562289118014 0.0067637542292 0.1709433595770 0.0881693328056 -0.0019649939331 -0.0604765839825 -0.0285407967862 0.0248478115765 -0.0800594961045 -0.0895048004469 -0.0514618948935 0.0905202847457 0.0126233912479 0.0761195485080 0.0956611028348 0.0920201689733 -0.0078272340613 0.0525194636315 0.0381238659012 -0.0419492613750 -0.0264921435025 -0.0091149484067 -0.1360132320140 -0.1509258855960 -0.0224844815191 -0.0051058337493 -0.0491773954040 0.0191476508108 0.1749278783558 0.0979449934061 0.0346298808249 -0.0197922154886 0.0026305762207 0.0500214189228 0.0458070604809 0.0323195306139 -0.0778744823679 -0.0838800212307 0.0039344437471 -0.0075806009711 0.0627505620992 0.0421597987998 -0.0327718429970 0.0356437779166 0.0138678962930 -0.0691071267284 0.0257492757177 0.0672159036337 -0.0064227595579 -0.0483428271933 0.0289960873985 0.0110822572980 -0.0643253996035 0.0080206788865 -0.0773414248007 -0.1356033424704 -0.0710430782890 0.0045466255304 -0.0473898721960 -0.0683779094144 0.0229361387567 0.0196563734202 0.0080339854110 -0.0547525712388 0.1142871334200 -0.0254074377623 -0.0320073928242 0.0244314060524 -0.0944484250461 0.0151331536146 0.0080870402566 -0.0919075440746 -0.0387376406734 0.0101808166019 -0.0375794334711 -0.0493499032355 0.0377769256866 0.0242282399450 -0.0483364624895 0.0246127249986 0.0445467651755 0.0177268017642 -0.0126335432274 -0.0634052364363 0.0123282068600 -0.0405080604783 -0.0822434834303 -0.0801404338626 0.1039121119169 0.0486101224250 0.0429251584583 0.0497028426159 -0.0530557738707 -0.0800882619590 0.0757693112083 0.0108325975155 -0.0910352592016 0.0419204583150 -0.0434631324957 -0.0543695696046 -0.0898007376063 0.0600467509392 0.1003983090316 0.0984478116341 0.0755932323971 0.0513521818111 0.0374548602823 -0.0491857593474 0.0427530277402 -0.0990414610485 0.0307239029039 -0.0014919892414 -0.0374742462682 -0.0185170768101 0.0835151325451 0.0060553532355 -0.0595832648939 0.0358239277510 0.1086157860596 -0.0040685022570 0.0677213000124 -0.0286378945993 0.0293582559225 -0.0524898078573 -0.0818866820411 -0.0762792656229 0.0936435980924 0.0414656009547 -0.0629478675317 0.0229373135170 0.0733767582371 -0.0907636633743 0.0610654332308 -0.0555088734353 0.0890132384445 0.0467201671033 -0.0471039241306 -0.0077525251294 0.0745787536184 0.0576127239648 0.0382859034747 0.0928957422474 -0.0224817750047 0.0041460195954 0.0315753723520 -0.0230496851076 -0.0569019089082 -0.0913698555398 0.0079327243684 -0.0837699503634 -0.0069333724707 0.0566912264310 -0.0747966858690 -0.0738290306854
