100 1 real
0.0404905577399
-0.0301653429559
0.0013536925754
-0.0112214273793
0.0476788463714
-0.0028050277545
-0.0011004148350
-0.1360634009959
-0.0294824724832
0.0140480957683
-0.0452145181446
0.0519713235500
-0.1118298406721
-0.0125850028559
-0.0036277796219
0.1541539500100
0.0325673930709
-0.0475526781436
0.0427547268829
-0.0414545435364
0.0303943206125
-0.0904951182765
-0.0095185819563
-0.0421607978208
0.0699719153438
0.0972688632702
-0.0488645837817
-0.0226828066915
0.0095134846739
0.0141901512903
0.0730749197663
-0.0446846429534
-0.0493822221999
0.1073708769730
-0.1120655561926
0.0485407061250
0.0531686392567
-0.0521079838842
0.0842293044092
0.0112231411557
-0.0895230157768
0.0126052316027
0.0560490102244
0.0013318442827
0.0596173195910
0.0431121951136
-0.0810033173745
0.0203803657998
-0.0670179471614
0.0528131770339
-0.1275223725449
0.0408788907678
0.0028017795010
-0.0053064313915
-0.0460142143262
-0.0264145922569
-0.0755578732890
0.1894365537030
0.0590372514584
0.0281542037389
0.0055676595065
-0.0971186440110
-0.0417862336483
0.0713484341629
-0.0349977387185
-0.0303048752399
0.0076128611433
0.0085020421538
-0.0087535543878
0.0978179888621
-0.0523590944509
-0.0021623790613
0.0103953689547
0.0138305713620
-0.0095613484684
-0.0243457696945
0.0341118961619
-0.0939882490591
0.0520057225095
0.0103910521623
-0.0727311818330
-0.1105855465789
0.0086676561997
-0.0182337363369
0.0088434205886
-0.0463847677352
-0.0460114209610
0.0206116725816
0.0531637495740
-0.0052897412057
0.0072416879031
-0.0652749223168
0.0142684605677
0.0404832571306
0.0296042439444
-0.0593816522747
-0.0338582024418
0.0102866401025
0.1100610261349
-0.0605376768528
