10 100 real
0.6407632001144 0.2461928398709 -0.4983665908875 0.8309839652944 -0.9084193826391 -0.0376641517145 0.6391595394275 -0.7069547930716 0.1697477057210 0.3536076369782 0.1835930613861 -0.0557525263633 -0.2470981490690 0.5378669445585 -0.4247122041028 0.3399912891231 -0.4525575113725 0.0475407881580 -0.4916494539210 0.2430908184526 -0.0530546537749 0.0863428254339 -0.1927481915578 -0.3186557001610 -0.4773811656142 0.3564922347985 -0.3629623861739 -0.0577467181945 0.5390855965669 -0.8986430104969 0.0301472058820 -0.5375582073318 0.4776791084667 -0.4773158356208 -0.3084783738277 -0.8573013837980 0.5013628727098 -0.4907453118514 -0.0341463361938 -0.0366459666248 -0.4383938844797 -0.2551724339785 -0.5034603837147 -0.4102926041835 0.3177038856982 -0.0095041746785 0.4191866570543 -0.5512618382664 -0.6035702783865 -0.6613245906691 -0.0569741385031 0.0274904225961 0.0204256064401 0.4992396463320 0.3460145992398 -0.0865911210541 0.1025458077761 0.6857376035536 -0.4944745768884 0.1936460743760 0.7035861831725 0.0415710756519 -0.8550532205982 0.7662133465951 -0.2868919578856 -1.1944980211331 0.7539377925613 -0.2435919947160 0.3169157732722 -0.6236095420844 -0.4551228341755 -0.7995094634453 0.2328558066920 -0.1005996111243 -0.4405774054370 -0.1384440932366 -0.2963158608976 -0.4353525519014 0.4256045564789 -0.2403854930381 -0.0071581519854 -0.1474502797264 -0.5342750898616 -0.2911147895134 1.0636353053335 0.6360822950003 -0.4709239706402 0.4629779587907 0.1352591057418 0.4593037207413 0.5759178491302 -0.2405977390271 -0.1014719754066 -0.5891168132673 0.4633802808373 -0.2930694079112 -0.0814925616442 0.4088111942323 0.4705201502309 0.3812541803586
0.5541303427894 -0.0951692329945 0.3477606168918 -0.5174169214850 0.8130461561330 -0.3960961827321 -0.3984344080245 0.3941804917806 0.2768015628365 0.2337109578982 0.1830027376150 0.3813023211819 -0.3733260181021 -0.8312441699352 0.4094555672561 0.7729731078464 0.4283667865076 -0.5442948021200 0.3753026434247 -0.3162096248442 0.0417585097020 -0.0350901269336 0.3711356778148 0.5634817077214 0.3839268938432 0.1045082890222 -0.3646483223041 -0.5397692567452 -0.2696756987667 0.2022171241446 -0.0316307161208 0.3141562460243 -0.6385587624796 0.4192852603868 -0.3476662940420 0.0787510008051 -0.2406408245555 0.1766786175465 -0.1876396756699 -0.5004315782811 0.1847210741949 0.7053242564876 0.3246026364001 0.7114126095675 -0.0315372652710 -0.1647957762295 -0.6573854427479 -0.3559759224071 -0.0592351536002 0.6110314656807 0.5222800777717 0.2557033765185 -0.2167368543301 -0.4467911635866 -0.2124730174895 -0.7042586983611 0.2089268055483 -0.3272393827058 1.1267207894077 0.4390450928151 0.3132110599253 -0.2688321491506 -0.3270771963637 -0.5874912332331 -0.4610685693601 0.1026277896491 -0.0056395479066 1.0594597587384 -0.3199823585380 0.1692597910234 0.3633639227144 0.3047038399384 -0.2308143788483 0.5733876943880 0.7871780073430 0.2296076090405 -0.4382511390509 0.4679916489539 0.2693422366988 -0.1316466630315 -0.6529260039425 0.3698802245617 0.2692468960375 -0.0789802105134 -0.2822150387859 -0.2845190964393 0.0422401157494 -0.6162981913087 -0.6561787556612 0.7355287532040 -0.2184721728759 0.1943643314117 -0.0770206192616 -0.1477921112315 -0.8070470635610 -0.0667880741633 0.5544259936228 -0.5734247987211 -0.5088951675457 0.6890770202454
0.6331732947120 0.0837668819687 -0.5495496685780 -0.4432133747597 -0.1942723723182 0.4465211117648 -0.8489937847692 -0.2477379546869 0.8074232234701 0.3821084800488 0.0650962343783 -0.7651607561114 0.9241403272005 -0.4208140141226 -0.6008756898744 -0.5765425166975 0.6513544078353 0.4474709143444 0.8057243555464 0.1780610043072 -0.2441031226212 0.5729621686877 0.7027418473379 -0.5665709766538 -0.5176138095807 -0.6248025441206 0.0192701834625 -0.4308431489590 0.8269587798270 -0.5624905149564 -0.2909475722734 0.0395870752531 0.4837925873667 -0.7172289606224 0.6653008783867 0.2368074319680 -0.3067695357326 -0.3096663100819 -0.1181585137550 1.3769684626615 0.5783273530470 0.0037378696856 -0.8949252068707 -0.1267928926702 0.1742581435229 -0.0921684166206 -0.1038296314526 -0.5875026418198 -0.1763783664873 0.7153783694888 0.6717284853422 -0.0336978045768 0.5168975401957 0.5766726951893 0.2641859335864 -0.1261183194254 0.9419499516075 -1.0107488517095 0.0914646973387 0.2562589958563 -0.2140559926000 0.4083953830892 0.2811529827085 -0.6018728624744 -0.1943205254721 0.1374810249151 0.4519098071127 -0.3879349165732 0.1500530086555 -0.2902044463606 0.1922244540797 -0.0242149494769 0.0990094491091 0.2328205490087 -0.0385635496712 0.4501625998673 -0.1430370766126 0.2876610691641 -0.2759278084508 0.2934832699949 0.6515505690654 0.6258171191750 -0.8343509395536 -0.8089462861020 0.0611692286251 -0.4950137355485 0.1535238738659 -0.0091953480124 -0.3878277722123 -0.2931817167931 0.1703919759671 -0.0097693267742 -0.2775068839140 -0.5004693437953 0.4000206809618 -0.4071385825744 0.7668904351901 0.2422763736049 -0.6851046139954 0.3064301412742
-0.7881374733456 -0.2027274257622 -0.0676264148128 -0.8311275968477 0.6597817671057 0.2895180818617 -0.7800831643167 0.3074018511868 0.2717662829754 0.7573334074979 0.4523319094982 0.1979464006365 0.3190214177935 0.9038617452701 -0.0471626523004 -0.0272893699142 0.1435710533684 0.3466823364981 -0.3474797745637 0.2349308133845 -0.1359076862781 0.8317228022265 -0.3490542757971 -0.2274740337788 -0.2183417181029 0.2879172206871 0.1115032664995 -0.5428343498737 0.7073150984145 0.4908098293964 -0.5011561205464 -0.4415359907851 0.3058168937628 0.7277404218405 0.9349732746964 0.5142747981879 0.2984680438676 -0.2393893367904 -0.2852902489005 -0.0392178313833 -0.3043506306128 -0.3199317002469 0.3981811848031 0.2485946624319 0.1468538129469 -0.5993234372155 -0.0718644107933 -0.2292486151917 0.0551384319676 0.4295359637277 0.5227280642572 -0.1410142830953 -0.1706663043071 -1.2003395259795 -0.1370810125077 -0.6155920062175 -0.4487262832664 -0.5011710168464 0.5052554190047 -0.6446803377317 -0.0195491392328 0.3284298326439 -0.5742943805377 0.1235341829169 -0.3700870711661 0.0103641390799 0.1823396619498 0.2480556263373 -0.2278836927235 0.2726409558932 -0.3863768072564 0.5308274981365 0.9957025259960 0.5277981664799 -0.7105517507527 0.2789258144318 -0.4495613187245 -0.6311755399832 0.5716067222704 -0.3932311120014 -0.1508960864422 0.9219137227327 -0.5055084446092 0.0626347716479 -0.3278488514001 0.1574785077351 -0.2001665319199 0.6267254559674 -0.1426783389147 -0.4276810208022 -0.3906171579655 0.6410224107322 -0.2262256900263 -0.3520109361676 0.2572298190406 0.5241070233895 -0.0524297023565 -1.2202959232294 -0.2619869984388 -1.3000333841876
-0.3285348033906 0.5042392948206 -0.3425447600312 0.1992424974294 -0.3391139611098 -0.1798811361142 0.6434995265391 1.0405388222893 -0.6445286112650 -0.5535701407056 0.3121234965111 -0.5539088751134 -0.1530638030929 -0.0136182294148 -0.2214517945883 -0.8201081511046 -0.6722765427249 -0.2281258509925 0.5002232683002 0.1255892597817 0.3132371113951 0.6531075377247 0.0994115076875 -0.4815607475114 0.4434947296397 -0.2939911379792 -0.5141354349074 0.6338235736999 -0.8648658006855 -0.2919396693594 0.5691879797651 -0.1865536244159 -0.2470320829478 0.0031944624549 -0.3352483529834 0.4638899889633 -0.1275984780814 0.6511597961986 0.8331488759991 -0.1403007249395 0.4632817323184 -0.1795022967532 -0.1099937700512 -0.4627117499614 -1.0950829128840 0.0209204606370 -0.1820313779321 0.5704113241495 0.4168267769339 -0.8138513778466 -0.3813657103733 0.3315819544859 0.1217767445553 -0.2043841610432 0.3460923111147 0.4355386938153 -0.3677146728688 0.8661508322964 -0.1070322486352 -0.5388735552993 -0.6640473917798 -0.8724237908581 0.8992319696504 0.3021172397478 0.7601341888559 0.5925271412046 -0.7182669778435 0.5280353053218 0.0915859578565 0.3302855369907 0.0363295477073 -0.3411438849434 -0.2968163678673 0.0255975411950 -0.0345687715024 0.7634445041025 0.8147978877673 0.0139948423279 -0.5797408757051 0.4892362032380 0.6061911234588 -0.2529302805978 0.2166874206631 0.1378708596683 -0.5196458959860 -0.6794795433911 0.1635450871825 0.0110145202391 0.6819737390976 -0.6517139130213 -0.5030834606851 -0.1371192140380 0.2798626694166 0.2465001979034 -0.0718904867684 -0.1777496573756 -0.5224609321962 -0.2736841092370 -0.1230550373038 -0.3846513526237
-0.3266270730514 -0.6944414237202 0.0557506622962 0.1711966402538 0.0236003937759 0.2439082646062 0.0541031825387 -0.6093401091354 0.8087260348319 -0.8822629741208 0.0550588789853 0.3770659565825 0.0635844156383 -0.4086292401790 0.0446949116445 0.7447975957622 -0.2934315468104 -0.5050712047554 0.1844169030108 0.2866435084803 -0.4626241541409 -1.5130344795016 0.0444397794066 1.0452625410314 0.0150879062477 0.4326927469222 -0.2576445279232 0.1489037969832 -0.5569231107516 0.3017422556484 -0.3410371060548 -0.5193215390648 0.8472061942430 0.2946931448945 0.5654364763903 -0.2106123023709 0.6744758862397 -0.2500968997154 0.9581180122904 -0.4830782244330 -0.9826250354458 0.3234766272693 0.9203969003282 0.3355750360500 0.0601965193478 0.7869834044191 -0.1971190631065 0.7279691286154 0.0613636513741 -0.2072812065507 -0.2805754244452 0.0542209904924 -0.2177645639784 0.5971706170002 -0.5874242471894 0.3949504749154 -0.4269213315088 0.7743953716478 -0.1945185366516 -0.2980600446622 0.5203864901277 0.2888669982009 0.4261925067424 0.0657268264141 -0.4109439188235 -0.1792924317270 0.7227781000828 -0.4868332248183 -0.8673859579601 0.4497246928926 0.3778350101568 0.0590965793355 -0.7008715383006 0.4979685655120 0.0335479125264 0.0853782439241 0.6102942613168 -1.2210788137271 0.3925368341395 0.4329417110984 -0.9066308418746 -0.1936466376660 0.1939441090319 0.5719234989360 -0.2970311818923 -0.3339267520001 -0.5477156336816 0.0198869771950 0.7164164854342 -0.0803045429351 -0.1288929829433 0.1774064999018 0.2528541248001 0.3541268216971 0.5881679707705 -0.0403230419049 0.4954119277426 0.5360534777170 0.7988277181151 0.4838924347286
1.0538083500591 0.8283544115412 -0.0616493346465 0.3033129662168 0.4520849915735 0.5329136025773 0.5651078616755 -0.3980826291469 -0.2800288295802 -0.1910629280934 -0.0484736036306 -0.3965268624282 -0.3515688941682 -0.5244611366705 -0.5505630115697 -0.0431798021084 0.0509705962130 -0.0367360831637 -0.5330730601508 0.2505268433785 0.3313770417144 0.3502317085009 0.2551574874816 0.1248619236009 0.0667667999416 -0.2358449588129 0.9566822423337 -0.1785071981025 -1.1891786463546 -0.0167686827381 0.8234788723489 1.0357759643474 -0.5548374621913 -0.4117209435367 -1.0233082913191 0.2504817441775 -0.3125850870801 -0.3952093990001 0.7630766282896 -0.2215865072082 -0.3661762142364 -0.1959542295252 -0.0818431896721 0.0422313522906 0.1638279643070 0.8667398115565 -0.4593172174018 0.3944957271980 -0.9846058059707 -0.2958834079978 -0.4318354297674 -0.0001332718111 -0.0715823039134 0.5405990053633 0.4588375089411 -0.9448036127277 0.1406369267475 0.2979107656576 0.7108656140400 0.0940907203643 -0.3427706998447 -0.5821534403704 0.8800076038964 -0.6985490891575 0.0391301435872 0.2163640205877 -0.0709721604515 -0.0726363854449 0.0825806978710 -0.0401783640323 -0.4350171296325 -0.7328040960444 -0.7798767494614 -0.7274261688350 -0.0434429840261 -0.2945981014078 -0.6237544555971 0.2381013864514 -0.0648866776064 0.7335749020252 0.3682901209124 -0.2505838025114 -0.2633931494683 -0.5780839178489 0.1069687239911 -0.1094449954746 0.4285437573068 -0.5469332071288 -0.7756988839799 -0.1388134888908 0.9836819820640 0.2376157298247 0.0641374742769 0.4671024029698 0.3907601624245 -0.3405685435348 -0.4592124796300 0.8385214186015 -0.2269468097241 0.2971056550255
-0.4946367277595 0.4810489907823 -0.2097207055832 0.0954432716316 -0.2777297228205 -0.7770100317168 0.1191409950454 0.5112380252955 -0.4079462553222 -0.0995638083394 -1.0295667542152 0.3206174829893 0.0230542021074 0.3482769901137 0.4204235746323 0.0964424380538 -0.8601642314586 -0.1843327069585 -0.2886308696093 -0.9221605307195 0.0880742333246 -0.8557457136140 -0.4939314485126 0.2918232375809 0.9420853139172 0.5760868372499 0.1212845890572 0.5068799781283 0.8155318894640 0.2345969633227 0.2266508524012 0.6225369260728 0.2972607448576 0.7700865385159 0.3568650642821 0.3863081955900 -0.3137435381071 0.3274355561668 -1.0056004015799 0.2119363154738 0.5320489013126 0.9653619704105 -0.0343653080699 -0.2619294326869 0.2082210366684 -0.3837523578298 0.2029507518716 0.1345079402301 0.1665568566776 -0.5487182611438 0.7624045542543 0.0467134327702 0.4519185276936 -0.5952656452561 -0.5492402086161 0.3839064383692 0.5032879116318 -0.6310566395625 -0.1999220911210 0.7817901739800 -0.5751695729584 -0.1104381470169 -0.3356213874715 0.5080328928895 0.0306313610527 -1.0715544583784 -0.3169752391917 -0.1101052697916 0.2755574377962 0.0283902382408 -0.5486730335096 0.6281265078152 1.2322479110306 -0.3302970391140 0.1423415608954 -0.0482245048107 0.5224815072331 0.3914567246347 0.6086487382815 -0.4655536413686 -0.4688148674155 0.4721759658832 -0.2159901865846 0.0682633932837 0.1762075512743 0.5645015672537 0.4870454352006 0.6153914705816 0.4964512490200 -0.2867245985494 -0.1774587000921 -1.0207118884985 0.9619223544237 0.3055345840271 -0.3541469330762 0.2607403785882 0.8460193577178 0.4227914263402 -0.0838572663529 -0.3684454547533
-0.5851701450822 -1.0311010784789 0.2806332215558 0.2443924629692 -0.0956751397672 -0.0471919340379 -0.9623348409769 0.2177666666288 -0.6158866052603 0.8295448546498 0.2198761519994 0.7002660518304 -0.0863188240031 -0.0630781340744 0.2673045290804 -0.4634481710675 0.2884169798989 0.6862542706404 0.3364761000968 0.4352849343737 -0.4690323236640 0.0769722787959 -0.3334189219970 -0.8732070012113 -0.9345223754083 0.4426825184792 -0.4445911807115 -0.0355605893962 0.2915764079130 0.3466371916357 -0.6375660689476 -0.0044253664456 -0.4290412085170 -0.3041935051636 -0.2413082507153 -0.5651567239309 -0.3205893801275 -0.2684982474015 0.1002318782470 -0.2227993798371 -0.2421470793890 -0.8336728924921 -0.1963341699197 0.4098600580309 -0.2743811379101 -0.0074141933645 0.3716826709132 0.4490061197429 0.5940149669937 0.2428435747362 -0.9339702992209 -0.2566187012805 -0.8604208140318 0.3537195124299 0.0933621417298 0.3257695998221 -0.5377216661826 -0.0704219493414 -0.7910087132657 -0.1224041583545 0.5543708138874 0.2945231791222 0.5102073426955 -0.3502606904320 0.7759912983658 0.5236957574450 -0.8114454087455 -0.8037670909232 0.2915330529486 -0.5380431563906 0.1456574925811 0.3579694333693 -0.8734554404382 -0.0521471844533 -0.2776317613628 -0.4903503212542 -0.5983269475584 0.7338877009910 -0.9600579036524 -0.3582534202827 0.2329939069415 -0.7217695729454 0.8000256564964 0.5083097165341 -0.4035472671415 0.2009058144227 0.1676849578324 -0.5037598774030 -0.5075999162249 0.6456083176896 -0.2813745170522 0.4053116857909 -0.5201715106630 -0.4976384332036 -0.0919724729544 0.6216052046280 -0.6195036500531 0.4794783189726 0.2190040724783 0.6112417790556
-0.5531811727217 -0.1946599137676 1.0578868337494 -0.1330415301274 -0.1712436502240 -0.1483223501820 0.7475905859233 -0.6965540749848 -0.3054809734397 -0.8320790165030 -0.2678556945075 -0.1878318658631 0.0524874198690 0.6208154036090 0.4261431687944 -0.2597166182781 0.7876718648869 -0.3725762801706 -0.5494693156111 -0.4701565536357 0.2303595126945 -0.1967192027675 -0.2865432804867 0.6034780041539 0.1634176408346 -0.9824242244346 0.6245882168553 0.7457326755321 -0.2770552454292 0.2917056774343 0.1541594055011 -0.4133295490021 -0.6565312817184 -0.1093366496483 -0.4650931202560 -0.2197789954829 0.1972044109722 0.6662337225758 -0.9228704857474 0.0981618055484 0.5616279042963 0.0524750597207 -0.0262232489660 -0.6228696226736 0.1626244918613 -0.1899143534593 0.8934512393117 -0.5523126380047 0.5136101643182 0.6326303419059 -0.7808119249773 -0.3109598715928 0.2850075305068 -0.3929014104037 0.2264975604212 0.9767420626042 -0.1522042897901 -0.1328938460965 -0.3758837018695 -0.1371268859012 -0.3973515502808 0.5511369846049 -0.8976362676587 0.4319468731600 0.2608423230968 0.5870604730049 -0.2592221173747 0.3466705262551 0.1603552524226 0.0015157949038 0.7607334067179 0.1714400518400 0.4052471909895 -0.3274871040067 0.0631245704807 -0.3410128330673 0.5065375183493 0.4172594954819 -0.4112528976980 -0.7382558880309 0.3143640386372 -0.9301877169648 1.0032243756609 0.3561500659461 0.1372105995888 0.2118453089578 -0.2722843572794 0.0665291804347 0.3231413690448 -0.3413045811962 -0.1186804492294 0.2384190116812 -0.6710625111267 0.4417999911507 -0.6022699343525 0.2529137530062 -0.6701004013096 -0.9038559377623 0.6474202628543 -0.6046614074065
